/*
 * Copyright (c) 2025 EdgeImpulse Inc.
 *
 * Generated by Edge Impulse and licensed under the applicable Edge Impulse
 * Terms of Service. Community and Professional Terms of Service
 * (https://edgeimpulse.com/legal/terms-of-service) or Enterprise Terms of
 * Service (https://edgeimpulse.com/legal/enterprise-terms-of-service),
 * according to your product plan subscription (the “License”).
 *
 * This software, documentation and other associated files (collectively referred
 * to as the “Software”) is a single SDK variation generated by the Edge Impulse
 * platform and requires an active paid Edge Impulse subscription to use this
 * Software for any purpose.
 *
 * You may NOT use this Software unless you have an active Edge Impulse subscription
 * that meets the eligibility requirements for the applicable License, subject to
 * your full and continued compliance with the terms and conditions of the License,
 * including without limitation any usage restrictions under the applicable License.
 *
 * If you do not have an active Edge Impulse product plan subscription, or if use
 * of this Software exceeds the usage limitations of your Edge Impulse product plan
 * subscription, you are not permitted to use this Software and must immediately
 * delete and erase all copies of this Software within your control or possession.
 * Edge Impulse reserves all rights and remedies available to enforce its rights.
 *
 * Unless required by applicable law or agreed to in writing, the Software is
 * distributed on an "AS IS" BASIS, WITHOUT WARRANTIES OR CONDITIONS OF ANY KIND,
 * either express or implied. See the License for the specific language governing
 * permissions, disclaimers and limitations under the License.
 */
// Generated on: 30.11.2025 00:14:39

#include <stdio.h>
#include <stdlib.h>
#include "edge-impulse-sdk/tensorflow/lite/c/builtin_op_data.h"
#include "edge-impulse-sdk/tensorflow/lite/c/common.h"
#include "edge-impulse-sdk/tensorflow/lite/micro/micro_mutable_op_resolver.h"
#include "edge-impulse-sdk/porting/ei_classifier_porting.h"

#if EI_CLASSIFIER_PRINT_STATE
#if defined(__cplusplus) && EI_C_LINKAGE == 1
extern "C" {
    extern void ei_printf(const char *format, ...);
}
#else
extern void ei_printf(const char *format, ...);
#endif
#endif

#define STRINGIZE(x) #x
#define STRINGIZE_VALUE_OF(x) STRINGIZE(x)

#if defined (__GNUC__)  /* GNU compiler */
#define ALIGN(X) __attribute__((aligned(X)))
#define DEFINE_SECTION(x) __attribute__((section(x)))
#elif defined (_MSC_VER)
#define ALIGN(X) __declspec(align(X))
#elif defined (__TASKING__) /* TASKING Compiler */
#define ALIGN(X) __align(X)
#define DEFINE_SECTION(x) __attribute__((section(x)))
#elif defined (__ARMCC_VERSION) /* Arm Compiler */
#define ALIGN(X) __ALIGNED(x)
#define DEFINE_SECTION(x) __attribute__((section(x)))
#elif defined (__ICCARM__) /* IAR Compiler */
#define ALIGN(x) __attribute__((aligned(x)))
#define DEFINE_SECTION(x) __attribute__((section(x)))
#elif defined (__clang__) /* LLVM/Clang Compiler */
#define ALIGN(X) __ALIGNED(x)
#define DEFINE_SECTION(x) __attribute__((section(x)))
#endif

#if defined(EI_MODEL_SECTION) && (defined(__GNUC__) || defined(__clang__))
#define MODEL_SECTION(X) __attribute__((section(STRINGIZE_VALUE_OF(X))))
#else
#define MODEL_SECTION(X)
#endif

#ifndef EI_MAX_SCRATCH_BUFFER_COUNT
#ifndef CONFIG_IDF_TARGET_ESP32S3
#define EI_MAX_SCRATCH_BUFFER_COUNT 4
#else
#define EI_MAX_SCRATCH_BUFFER_COUNT 4
#endif // CONFIG_IDF_TARGET_ESP32S3
#endif // EI_MAX_SCRATCH_BUFFER_COUNT

#ifndef EI_MAX_OVERFLOW_BUFFER_COUNT
#define EI_MAX_OVERFLOW_BUFFER_COUNT 10
#endif // EI_MAX_OVERFLOW_BUFFER_COUNT

using namespace tflite;
using namespace tflite::ops;
using namespace tflite::ops::micro;

namespace {

#if defined(EI_CLASSIFIER_ALLOCATION_STATIC_HIMAX) || defined(EI_CLASSIFIER_ALLOCATION_STATIC_HIMAX_GNU)
constexpr int kTensorArenaSize = 906464;
#else
constexpr int kTensorArenaSize = 905440;
#endif

#if defined(EI_CLASSIFIER_ALLOCATION_STATIC)
#if defined (EI_TENSOR_ARENA_LOCATION)
uint8_t tensor_arena[kTensorArenaSize] ALIGN(16) DEFINE_SECTION(STRINGIZE_VALUE_OF(EI_TENSOR_ARENA_LOCATION));
#else
uint8_t tensor_arena[kTensorArenaSize] ALIGN(16);
#endif
#elif defined(EI_CLASSIFIER_ALLOCATION_STATIC_HIMAX)
#pragma Bss(".tensor_arena")
uint8_t tensor_arena[kTensorArenaSize] ALIGN(16);
#pragma Bss()
#elif defined(EI_CLASSIFIER_ALLOCATION_STATIC_HIMAX_GNU)
uint8_t tensor_arena[kTensorArenaSize] ALIGN(16) __attribute__((section(".tensor_arena")));
#else
#define EI_CLASSIFIER_ALLOCATION_HEAP 1
uint8_t* tensor_arena = NULL;
#endif

static uint8_t* tensor_boundary;
static uint8_t* current_location;

template <int SZ, class T> struct TfArray {
  int sz; T elem[SZ];
};

enum used_operators_e {
  OP_CONV_2D, OP_DEPTHWISE_CONV_2D, OP_PAD, OP_ADD, OP_SOFTMAX,  OP_LAST
};

struct TensorInfo_t { // subset of TfLiteTensor used for initialization from constant memory
  TfLiteAllocationType allocation_type;
  TfLiteType type;
  void* data;
  TfLiteIntArray* dims;
  size_t bytes;
};

typedef struct {
  TfLiteTensor tensor;
  int16_t index;
} TfLiteTensorWithIndex;

typedef struct {
  TfLiteEvalTensor tensor;
  int16_t index;
} TfLiteEvalTensorWithIndex;

TfLiteContext ctx{};
static const int MAX_TFL_TENSOR_COUNT = 4;
static TfLiteTensorWithIndex tflTensors[MAX_TFL_TENSOR_COUNT];
static const int MAX_TFL_EVAL_COUNT = 4;
static TfLiteEvalTensorWithIndex tflEvalTensors[MAX_TFL_EVAL_COUNT];
TfLiteRegistration registrations[OP_LAST];

namespace g0 {
const TfArray<4, int> tensor_dimension0 = { 4, { 1,96,96,3 } };
const MODEL_SECTION(EI_MODEL_SECTION) ALIGN(16) float tensor_data1[16] = { -1.40682053565979, 4.764498233795166, -12.800474166870117, -1.0871720314025879, 2.1824250221252441, 34.195587158203125, 2.9978823661804199, -2.7012324333190918, 0.78512012958526611, 0.42672538757324219, 3.0770933628082275, 6.3983745574951172, -1.2384405136108398, 3.7681739330291748, 4.352757453918457, -0.13350634276866913, };
const TfArray<1, int> tensor_dimension1 = { 1, { 16 } };
const MODEL_SECTION(EI_MODEL_SECTION) ALIGN(16) float tensor_data2[16] = { -0.30109995603561401, 2.6288440227508545, 4.0162487030029297, 3.4724478721618652, 1.8093112707138062, 3.3169457912445068, 5.1874632835388184, 3.8995490074157715, 0.19929760694503784, 1.7950822114944458, 5.8951892852783203, 9.8904123306274414, -0.32396247982978821, 6.4288702011108398, 2.0890793800354004, -0.41642889380455017, };
const MODEL_SECTION(EI_MODEL_SECTION) ALIGN(16) float tensor_data3[48] = { 2.1108477115631104, 0.04540184885263443, 3.1632153987884521, 1.8974235057830811, 2.0039856433868408, 2.0777828693389893, 3.8225991725921631, -0.061019428074359894, 0.0083277653902769089, -0.75996601581573486, 1.4829839468002319, 0.86159402132034302, 2.2181465625762939, -0.16218365728855133, 2.604586124420166, 3.3104836940765381, -0.1309230625629425, -0.70308792591094971, -0.19594496488571167, 3.8873169422149658, 1.0878849029541016, -0.079501055181026459, -0.000332594383507967, 0.61286354064941406, 3.7908201217651367, -0.54182493686676025, 0.13313627243041992, 1.2416747808456421, 1.1361681222915649, 2.9462409019470215, 2.9605145454406738, 2.3281991481781006, 0.74627071619033813, 3.235842227935791, 0.12605193257331848, -1.1995266675949097, 1.5201569795608521, 1.2893136739730835, -0.36608448624610901, 3.4597878456115723, 2.8409683704376221, 2.228804349899292, -0.1410345584154129, -0.83814513683319092, 5.0301556587219238, 0.095004536211490631, 2.8047938346862793, 0.88095939159393311, };
const TfArray<1, int> tensor_dimension3 = { 1, { 48 } };
const MODEL_SECTION(EI_MODEL_SECTION) ALIGN(16) float tensor_data4[48] = { 5.9645748138427734, 3.981910228729248, 10.583967208862305, 5.218390941619873, -0.012665132060647011, 2.4719994068145752, 0.38593986630439758, 1.8267595767974854, 2.2185244560241699, 0.94093692302703857, 2.6021790504455566, 0.21444666385650635, -8.0978918075561523, -0.70510011911392212, 2.557262659072876, 0.064590662717819214, -0.56034213304519653, 0.73752576112747192, 0.10115844011306763, 0.40660306811332703, -1.7635040283203125, 0.94966936111450195, 6.0010905265808105, 1.4215161800384521, -2.1285996437072754, 2.6678707599639893, 1.50290846824646, 0.95690125226974487, -0.63897806406021118, 0.70534986257553101, -0.37390044331550598, -9.1320171356201172, 2.4642078876495361, 1.0710717439651489, 2.4935088157653809, 0.23653692007064819, 1.0083135366439819, -0.026380240917205811, 4.549407958984375, -2.6587131023406982, 0.99148440361022949, -6.5676980018615723, 0.16218191385269165, 1.0756356716156006, -0.11715878546237946, 6.0940866470336914, 0.22054821252822876, -2.940260648727417, };
const MODEL_SECTION(EI_MODEL_SECTION) ALIGN(16) float tensor_data5[48] = { 4.3071804046630859, 2.2778887748718262, 1.5638552904129028, 3.2083535194396973, 2.2469823360443115, 5.0384159088134766, -1.9326695203781128, -0.31043422222137451, 0.55994141101837158, 1.3812471628189087, 2.2538459300994873, 0.16018058359622955, 0.98084580898284912, -0.48131304979324341, 0.42965686321258545, -3.6386017799377441, 1.6298432350158691, 4.2259016036987305, -0.5214347243309021, 2.6967604160308838, 1.2259742021560669, 0.99299043416976929, 3.9699151515960693, -0.52014106512069702, 1.2200155258178711, 1.1647723913192749, 4.0482592582702637, 3.6700966358184814, -0.070471689105033875, -2.6168723106384277, 0.064950950443744659, 0.8546290397644043, -1.9923026561737061, 2.1903829574584961, 1.0705238580703735, 1.8619017601013184, 3.6779904365539551, 1.3424922227859497, 2.3381974697113037, 4.5367608070373535, -0.56519365310668945, 2.7798244953155518, 0.48726877570152283, 1.4973790645599365, 1.1922684907913208, 1.0986270904541016, -1.1609728336334229, 2.6710925102233887, };
const MODEL_SECTION(EI_MODEL_SECTION) ALIGN(16) float tensor_data6[48] = { -15.88844108581543, -0.025462348014116287, 1.5928459167480469, 0.098594129085540771, 0.74318283796310425, -0.59415006637573242, 1.1532905101776123, 3.4720115661621094, 0.13170364499092102, 4.8334622383117676, -0.23069056868553162, 4.3204169273376465, -1.8434714078903198, -0.19160893559455872, 2.5206096172332764, 1.7208205461502075, 0.085336968302726746, 3.9832642078399658, 2.2858798503875732, 1.9402118921279907, -0.037046447396278381, -0.07671356201171875, -0.013747699558734894, 2.063875675201416, -1.2800182104110718, 3.6275382041931152, 31.556180953979492, 3.4443044662475586, 0.68782413005828857, 0.81982880830764771, -0.077114671468734741, 0.28168034553527832, 0.81138211488723755, 2.9011256694793701, -1.3290998935699463, 2.4946749210357666, -4.0413379669189453, 2.4848623275756836, -6.1262526512145996, 2.7203109264373779, 3.2783780097961426, 1.0607879161834717, 1.6169835329055786, -0.24884378910064697, 2.3737621307373047, 0.39157208800315857, 0.40432059764862061, 0.022924330085515976, };
const MODEL_SECTION(EI_MODEL_SECTION) ALIGN(16) float tensor_data7[48] = { 0.2305808812379837, 0.72258782386779785, 0.56100809574127197, 0.16701816022396088, 2.1916451454162598, 4.0465478897094727, 1.1249867677688599, 0.004124355036765337, -0.30839124321937561, -0.45919197797775269, 0.99841451644897461, 0.28471207618713379, 1.254313588142395, 0.76810628175735474, 3.5922729969024658, 1.2735826969146729, 0.50527936220169067, -0.4096863865852356, -0.061373986303806305, 0.91463863849639893, -0.61863470077514648, 2.5665078163146973, 3.6762866973876953, 1.56910240650177, 1.584568977355957, 0.0799998939037323, 6.9669771194458008, 1.8885598182678223, 1.7343757152557373, -0.2267753928899765, 2.6223976612091064, 1.1980390548706055, 0.37551820278167725, -0.032087724655866623, 3.7178604602813721, 1.815860390663147, -1.3689925670623779, 0.098604492843151093, -0.15704677999019623, 1.868808388710022, 0.15120567381381989, -0.15445709228515625, -0.30151078104972839, 0.020933015272021294, 1.9330903291702271, 1.3963927030563354, 0.21976633369922638, 1.180645227432251, };
const MODEL_SECTION(EI_MODEL_SECTION) ALIGN(16) float tensor_data8[48] = { 0.46678280830383301, 1.5819652080535889, -0.26044350862503052, 2.3136632442474365, 0.60711652040481567, 8.3240451812744141, -0.32932591438293457, 5.8455753326416016, 0.3408026397228241, 1.2935261726379395, 1.2518402338027954, 0.26538205146789551, -0.103729248046875, 1.2027668952941895, -0.071966558694839478, -0.3781658411026001, -0.073588967323303223, 0.13353049755096436, 0.23954182863235474, -0.39754742383956909, 0.14079874753952026, -0.66414660215377808, -0.12408784031867981, -2.7463936805725098, -0.58953702449798584, 4.5233278274536133, 2.1079285144805908, 6.8724279403686523, 0.37365591526031494, 0.21711993217468262, -0.2473091334104538, 0.11405885219573975, 0.81190705299377441, 0.16618263721466064, 0.70244288444519043, 0.44452381134033203, 5.8186564445495605, 0.06248009204864502, 5.5756320953369141, 0.21624436974525452, 0.11242395639419556, 5.5634012222290039, -0.036759018898010254, 0.1851496696472168, 1.4244837760925293, 0.054245024919509888, 0.40334099531173706, 1.5577607154846191, };
const MODEL_SECTION(EI_MODEL_SECTION) ALIGN(16) float tensor_data9[96] = { 2.5821352005004883, 0.35385853052139282, 1.3459393978118896, -0.54124355316162109, 1.5953657627105713, 0.91742932796478271, 3.1269102096557617, 3.5392727851867676, -0.46047142148017883, 1.8165297508239746, 1.4243400096893311, 0.83051466941833496, 2.7341692447662354, 4.8357677459716797, -0.13336090743541718, -0.68030571937561035, 2.2290544509887695, 2.3469200134277344, 0.46469604969024658, -0.10638833791017532, -0.28653654456138611, 2.4967691898345947, 1.5101587772369385, 0.77927523851394653, 1.7791868448257446, 2.077547550201416, 1.4294936656951904, 0.89123791456222534, 0.023230679333209991, 0.0044568455778062344, 1.4498134851455688, 1.8895701169967651, 1.9680359363555908, 1.1004766225814819, 1.6741536855697632, -0.2766212522983551, 2.2566804885864258, 2.6256303787231445, 0.45743566751480103, 0.95128053426742554, 0.50987106561660767, 1.9063096046447754, 2.1439776420593262, 0.73548555374145508, 1.1061605215072632, 3.2564282417297363, 2.8441624641418457, 1.4434390068054199, 1.5770120620727539, 0.87801367044448853, 0.1240391805768013, -0.6362069845199585, 2.6779255867004395, 1.5761604309082031, 2.3168849945068359, 1.857020378112793, -0.12293065339326859, 1.7506198883056641, 0.77779251337051392, 1.6332186460494995, 1.6838468313217163, 1.3965193033218384, 1.0482540130615234, 2.7630972862243652, 1.0703624486923218, 1.1340252161026001, 1.9554753303527832, -0.3388729989528656, 2.6840610504150391, 1.1705644130706787, 1.9944040775299072, -0.47961074113845825, -0.37373256683349609, 1.3180831670761108, 0.43670019507408142, 1.288631796836853, 2.3630955219268799, 4.4791731834411621, 1.6810208559036255, -1.2087695598602295, 1.0916248559951782, -2.0833468437194824, -0.37803465127944946, 0.25021347403526306, 1.5801206827163696, 1.565659761428833, 1.6136815547943115, 1.3871258497238159, 1.6838381290435791, 1.5980641841888428, 1.4128251075744629, 1.7016626596450806, 2.1000528335571289, 2.7658913135528564, -2.9199438095092773, 3.3011233806610107, };
const TfArray<1, int> tensor_dimension9 = { 1, { 96 } };
const MODEL_SECTION(EI_MODEL_SECTION) ALIGN(16) float tensor_data10[96] = { 1.977698802947998, -1.0630979537963867, 0.86566579341888428, 2.0246679782867432, -0.22731602191925049, -0.69554811716079712, -3.6224708557128906, 0.22351790964603424, -0.31783777475357056, 0.44363638758659363, 0.50059598684310913, -0.24670672416687012, 0.30635499954223633, -2.48565673828125, 0.99865645170211792, -0.75588983297348022, -0.10369113832712173, 5.1621608734130859, 1.6597592830657959, 0.88375401496887207, 0.13093313574790955, -0.37707829475402832, -0.049530923366546631, -0.021707892417907715, 3.5444192886352539, -0.14464473724365234, -0.11115528643131256, -0.61527895927429199, -0.67267382144927979, -0.79975724220275879, 0.86843812465667725, -1.7989583015441895, -0.052250027656555176, 0.10687023401260376, -0.18815553188323975, 2.3335041999816895, 0.59777140617370605, -0.50104802846908569, 0.86763370037078857, 0.018293455243110657, 0.051712408661842346, 0.64922183752059937, -3.5828351974487305, -1.277463436126709, -1.4650075435638428, 3.158165454864502, -0.028292804956436157, 3.3760521411895752, 2.606877326965332, -2.4935383796691895, 0.057242348790168762, 1.2725543975830078, 1.7670873403549194, -0.15417769551277161, -1.8859239816665649, 1.1448748111724854, -3.9141459465026855, 0.49886441230773926, 0.27547705173492432, -0.72698390483856201, -0.43696847558021545, -0.1597721129655838, -3.690760612487793, -0.10827326774597168, 0.25875043869018555, 2.9140503406524658, 2.1334569454193115, 1.6824396848678589, -4.2977461814880371, -0.016460023820400238, -1.6852478981018066, -0.068521618843078613, 5.6940550804138184, 1.1101768016815186, -0.043398961424827576, 0.24392798542976379, 9.1407794952392578, 1.8102031946182251, -0.24716904759407043, -1.8736166954040527, -0.32037064433097839, -2.0627503395080566, 0.18633732199668884, -0.65343230962753296, 0.1244267076253891, 0.054225385189056396, 0.13819561898708344, 0.093450546264648438, 0.41768026351928711, -0.33621948957443237, 0.011369019746780396, -0.028736438602209091, -0.087081454694271088, -0.067781567573547363, 1.2466603517532349, 3.8200337886810303, };
const MODEL_SECTION(EI_MODEL_SECTION) ALIGN(16) float tensor_data11[96] = { 0.40508532524108887, 1.4607466459274292, 1.8903366327285767, 2.3004496097564697, 2.9861686229705811, -1.0052750110626221, -0.81458425521850586, 1.6242220401763916, 2.3625528812408447, -1.3975378274917603, 2.6698191165924072, 0.88215500116348267, 1.2626218795776367, 2.3019084930419922, 2.3907444477081299, 0.56356436014175415, 0.45982107520103455, 1.2436927556991577, 2.21482253074646, 1.1832156181335449, -0.070205211639404297, 0.23816794157028198, 2.018862247467041, -0.65649235248565674, 2.6195840835571289, -0.012726767919957638, 2.2370660305023193, 1.4067939519882202, 1.6368347406387329, 3.526057243347168, 2.851057767868042, 2.4572710990905762, 1.6759570837020874, -0.20032308995723724, 2.0014314651489258, 0.60132956504821777, 0.51343649625778198, 1.4596642255783081, 2.7162542343139648, -0.54768776893615723, 1.8707181215286255, 1.5918846130371094, 2.7099275588989258, -1.051587700843811, 3.2360899448394775, 1.5211391448974609, 1.7534571886062622, 2.6628031730651855, 4.1207122802734375, 2.0971662998199463, -0.12552352249622345, 1.7145709991455078, -1.0617834329605103, -0.025048188865184784, -1.0284678936004639, 1.0899395942687988, -0.090414352715015411, 1.8618379831314087, 2.0316572189331055, 1.4662265777587891, 1.6069167852401733, 1.3924368619918823, 1.4691809415817261, 0.97570806741714478, 2.488112211227417, 1.9496304988861084, 1.2883960008621216, -1.3349111080169678, 1.6833486557006836, -0.71067959070205688, 1.1194043159484863, 1.590062141418457, 2.0946893692016602, 1.0308763980865479, -1.5541471242904663, -1.3508806228637695, 1.6647559404373169, 0.08908417820930481, 0.74516218900680542, -0.40502724051475525, 2.0226061344146729, 1.6781680583953857, 0.87268787622451782, 1.9254302978515625, 1.1436566114425659, 0.087966710329055786, 2.3214402198791504, 3.8483855724334717, 1.3980438709259033, 2.2697362899780273, 1.2846766710281372, -0.066292107105255127, 1.4386006593704224, 1.5960402488708496, 1.1111792325973511, 1.7121318578720093, };
const MODEL_SECTION(EI_MODEL_SECTION) ALIGN(16) float tensor_data12[96] = { 2.3616015911102295, 5.6141853332519531, -0.12567009031772614, -0.20138056576251984, 3.4579908847808838, -0.85513055324554443, 0.053893625736236572, 0.016232721507549286, 1.2684413194656372, 2.4524979591369629, -1.1437435150146484, -0.048688173294067383, 0.1004193127155304, 0.68537592887878418, 1.7427730560302734, -1.4961152076721191, -0.90512299537658691, -0.098816961050033569, -0.0011011771857738495, 1.0723781585693359, -0.71286934614181519, 0.53154897689819336, -0.37717556953430176, 0.79202592372894287, 2.1685535907745361, -0.027968313544988632, -0.80712270736694336, 3.1280467510223389, 1.0088725090026855, -9.5046682357788086, 0.56908249855041504, 5.1227211952209473, 2.8850076198577881, -1.689131498336792, 0.44260036945343018, -0.018458366394042969, -0.037850856781005859, -0.076869845390319824, 0.81946516036987305, -0.78767728805541992, -1.0182869434356689, -0.19750264286994934, -3.0434226989746094, 0.010584026575088501, 10.201178550720215, -0.17666742205619812, 1.4370498657226562, -0.24048984050750732, -10.152850151062012, 0.14070838689804077, -0.012663079425692558, 0.0036704763770103455, -0.50127702951431274, 2.7732603549957275, -0.85823255777359009, 1.7987155914306641, 2.7533674240112305, -0.080264776945114136, 1.5702440738677979, -0.032884947955608368, -2.839622974395752, -0.23123261332511902, 0.18863774836063385, 0.006314396858215332, -0.17570632696151733, 1.7360111474990845, -0.33199316263198853, -2.1404149532318115, -0.53755795955657959, 0.40606856346130371, 0.085628002882003784, -0.4114818274974823, 0.44856339693069458, 0.00524921715259552, -0.69553059339523315, -1.8152272701263428, -0.041771888732910156, -0.14895203709602356, 2.5526494979858398, -1.224381685256958, -1.4402934312820435, -2.8882138729095459, -0.036298170685768127, 0.15757393836975098, 3.6097152233123779, -1.5007046461105347, -0.78257650136947632, -13.959872245788574, -1.9768800735473633, 1.2027109861373901, -0.85223597288131714, 1.000943660736084, -0.027890358120203018, -0.16007594764232635, -0.9996943473815918, 0.33191984891891479, };
const MODEL_SECTION(EI_MODEL_SECTION) ALIGN(16) float tensor_data13[96] = { -0.62369108200073242, 1.5820698738098145, 2.3829691410064697, 0.86723780632019043, -1.0540312528610229, -1.46907639503479, 3.3309836387634277, 0.70070791244506836, 0.61960196495056152, -0.65287184715270996, 1.981830358505249, -0.067408204078674316, -2.5526852607727051, 2.8428671360015869, 3.0815646648406982, 1.1683663129806519, 1.8811236619949341, 1.4595123529434204, -1.9401552677154541, -1.6889818906784058, 0.62881869077682495, 2.6972250938415527, 3.0750107765197754, 1.6884055137634277, 0.20509928464889526, 0.49471518397331238, 2.9723379611968994, 1.0919965505599976, 0.50432664155960083, -1.9637289047241211, 1.4606870412826538, -0.77459949254989624, -0.052625503391027451, 1.1676546335220337, 0.026691859588027, 0.25738179683685303, 1.9201815128326416, 1.0846375226974487, -0.60846090316772461, 1.7701151371002197, 1.2883602380752563, 2.6076860427856445, 1.4985926151275635, 2.312605619430542, 1.9304002523422241, 1.0010136365890503, 0.50168496370315552, 2.1513760089874268, 1.3601397275924683, -1.3100532293319702, -1.5818489789962769, 0.10891101509332657, -0.1640922874212265, -0.29473194479942322, 0.77232891321182251, -0.012789616361260414, 0.11391302198171616, -0.2784290611743927, -1.539939284324646, 1.8573585748672485, -0.72955018281936646, 0.65394115447998047, -0.26486074924468994, -0.76901030540466309, -1.8803117275238037, 1.9041997194290161, 2.1593408584594727, 0.39147484302520752, -1.1721155643463135, 0.31760716438293457, 0.38520380854606628, 0.52896982431411743, 1.3456152677536011, -0.40314316749572754, 0.17890530824661255, 2.1708395481109619, -0.13568589091300964, 1.8868049383163452, 1.8335480690002441, -0.17974470555782318, 1.4760677814483643, 0.33607694506645203, -0.091578580439090729, 0.23530970513820648, 1.8260599374771118, 2.3949048519134521, 2.3399467468261719, 0.28440913558006287, 0.71493035554885864, 2.0591695308685303, -0.11184263974428177, -1.988001823425293, 0.21146290004253387, -1.0186474323272705, -0.6354859471321106, -0.41291850805282593, };
const MODEL_SECTION(EI_MODEL_SECTION) ALIGN(16) float tensor_data14[32] = { 0.014220026321709156, 0.0077166333794593811, -0.011536888778209686, 0.0059383627958595753, 0.0083771627396345139, -0.0075052804313600063, -0.01253118459135294, 0.0087658818811178207, 0.01037805899977684, -0.01960119791328907, 0.0086746029555797577, -0.010917721316218376, -0.012876894325017929, -0.0066220671869814396, -0.015116062946617603, 0.0085928523913025856, -0.0070382142439484596, -0.013107639737427235, -0.016284439712762833, -0.012919149361550808, 0.004356791265308857, 0.0068842419423162937, 0.0026272016111761332, -0.0049525750800967216, 0.0067823617719113827, 0.024069987237453461, -0.012062123976647854, -0.0070994100533425808, 0.032371759414672852, -0.010596174746751785, -0.010015565901994705, -0.012732800096273422, };
const TfArray<1, int> tensor_dimension14 = { 1, { 32 } };
const MODEL_SECTION(EI_MODEL_SECTION) ALIGN(16) float tensor_data15[1*3*3*16] = { 
  /* [0][0][][] */ -8.5695571899414062,0.11353753507137299,-0.23300743103027344,-1.7634811401367188,0.26165467500686646,-0.085388265550136566,1.2824898958206177,-10.423810958862305,-0.17659547924995422,-0.04034842923283577,-0.067078687250614166,0.88800668716430664,-3.9252877235412598,0.047079984098672867,0.40669217705726624,-12.109872817993164, 4.0267438888549805,0.15072473883628845,-0.36047413945198059,1.7705836296081543,0.85820531845092773,-0.16190104186534882,2.0432276725769043,-17.394855499267578,-0.1674792617559433,1.6512236595153809,-1.0604848861694336,1.5702352523803711,-3.2424850463867188,0.054999407380819321,0.95855283737182617,-4.0818142890930176, 1.9072631597518921,-0.14479467272758484,0.25475800037384033,-0.028435001149773598,-0.48760014772415161,0.085116356611251831,-1.5264333486557007,10.640841484069824,-0.18469038605690002,-0.35577166080474854,0.030075499787926674,-0.47900456190109253,1.895155668258667,0.013561577536165714,-0.76796424388885498,-4.7821164131164551, 
  /* [0][1][][] */ -10.087335586547852,0.76886677742004395,-0.063498549163341522,0.18713590502738953,-0.29532116651535034,0.019483665004372597,-0.4630882740020752,1.9289131164550781,-0.056300044059753418,0.0062965699471533298,0.023731101304292679,-3.3175837993621826,-1.515388011932373,0.085878297686576843,-0.22479797899723053,-2.3038740158081055, -6.2179684638977051,-0.24864335358142853,-0.16324357688426971,-0.20295619964599609,-0.050824064761400223,-0.03301040455698967,0.12365385144948959,-3.7891511917114258,-0.21370744705200195,-1.1570712327957153,0.17322331666946411,-0.36219298839569092,-3.2171955108642578,-1.3133209943771362,0.0048931301571428776,3.8089182376861572, 1.1119179725646973,0.0078784888610243797,0.18220877647399902,0.028696341440081596,0.01851169764995575,0.042513180524110794,-0.41214758157730103,4.5518112182617188,-0.2488870769739151,0.083478972315788269,-0.015556995756924152,0.03540986031293869,-0.66196262836456299,0.12027572095394135,-0.030416613444685936,7.1796369552612305, 
  /* [0][2][][] */ -9.1553964614868164,-0.43534567952156067,0.19331322610378265,0.029545160010457039,-0.043505221605300903,0.049091678112745285,-0.6338798999786377,7.145655632019043,-0.1510348916053772,0.0033901270944625139,-0.0032382484059780836,0.13603375852108002,1.2398595809936523,0.018046364188194275,-0.20450519025325775,3.7542333602905273, 1.8149527311325073,-0.023366775363683701,0.087198756635189056,-0.023206714540719986,-0.18216037750244141,0.050484132021665573,-0.55294406414031982,2.8490815162658691,-0.24647060036659241,-0.17011627554893494,-0.0029340772889554501,2.5545220375061035,-1.784921407699585,-0.00075938121881335974,-0.21625605225563049,-18.429813385009766, 1.6327332258224487,-0.041466467082500458,0.05357225239276886,-0.0015911450609564781,0.028642702847719193,0.017834426835179329,0.14118285477161407,3.0209436416625977,-0.22412712872028351,0.056168965995311737,-0.008367050439119339,-3.849116325378418,3.3074154853820801,0.02717098593711853,0.12680025398731232,-21.090656280517578, 
};
const TfArray<4, int> tensor_dimension15 = { 4, { 1,3,3,16 } };
const MODEL_SECTION(EI_MODEL_SECTION) ALIGN(16) float tensor_data16[8] = { -1.864445686340332, -104.35813140869141, -17.430431365966797, -16.109071731567383, -41.941062927246094, -5.6155729293823242, -41.201805114746094, -27.308542251586914, };
const TfArray<1, int> tensor_dimension16 = { 1, { 8 } };
const MODEL_SECTION(EI_MODEL_SECTION) ALIGN(16) float tensor_data17[1*3*3*48] = { 
  /* [0][0][][] */ -0.14683942496776581,-0.065567806363105774,-0.046288911253213882,-0.084193110466003418,0.048783205449581146,-0.3010234534740448,-0.48197248578071594,-0.18072837591171265,-0.1096794381737709,-0.067554764449596405,0.033967941999435425,0.09184042364358902,0.25115880370140076,-16.692045211791992,0.3570290207862854,-0.40896987915039062,-13.208820343017578,-0.07201077789068222,0.14822404086589813,-0.042659692466259003,-0.0068119373172521591,-0.41550219058990479,-0.63527935743331909,-0.1278502494096756,-0.14255562424659729,-0.39811599254608154,-0.093498840928077698,-0.043956175446510315,0.7669944167137146,0.032105449587106705,0.18758654594421387,0.20065934956073761,-1.2267607450485229,-0.040460869669914246,-0.02624148316681385,0.53585666418075562,0.014596184715628624,1.1170802116394043,-0.20647820830345154,0.31815382838249207,-0.19912126660346985,-0.13581074774265289,0.52935415506362915,-0.05176183208823204,-0.017272265627980232,-0.13901033997535706,-0.90248239040374756,0.59728801250457764, 0.25820425152778625,0.032700546085834503,-0.20137159526348114,-0.14440962672233582,0.40043118596076965,-0.96251857280731201,-0.77578127384185791,-0.21530535817146301,0.24113364517688751,-0.10385418683290482,-0.42713367938995361,0.15295833349227905,0.27429285645484924,-19.226551055908203,-0.0025685769505798817,0.59750825166702271,-6.057316780090332,-0.09573403000831604,0.23585021495819092,0.042579583823680878,0.050487805157899857,-0.6266179084777832,-0.72543507814407349,-0.11176126450300217,-0.020223665982484818,-0.40468090772628784,-0.17591752111911774,-0.087832912802696228,-0.59109175205230713,0.044946867972612381,-0.11085914075374603,0.42366889119148254,0.27718186378479004,-0.05850016325712204,0.25404563546180725,0.82734119892120361,0.010283182375133038,1.6809542179107666,-0.15068073570728302,0.51656192541122437,-0.33064013719558716,0.054091166704893112,0.62799692153930664,-0.060334976762533188,0.009049583226442337,-0.089906901121139526,-1.3175264596939087,0.52490627765655518, -0.11013656854629517,0.12674494087696075,0.045741476118564606,-0.027662463486194611,-0.45427912473678589,-0.82081496715545654,-0.35957610607147217,-0.047140341252088547,0.35132446885108948,-0.010354398749768734,-0.47016829252243042,0.054055385291576385,0.059927415102720261,-16.737319946289062,-0.31240969896316528,-0.10895796865224838,-14.83458137512207,-0.021791787818074226,0.10937698185443878,0.074960663914680481,-0.078294292092323303,-0.4389665424823761,-0.20164859294891357,-0.038119886070489883,-0.045332450419664383,-0.09647040069103241,-0.084041759371757507,-0.026340534910559654,-0.10929439961910248,0.03798990324139595,-0.047797691076993942,0.068605795502662659,1.0222170352935791,-0.03922656923532486,0.27473568916320801,0.3107205331325531,0.010924302972853184,0.83364570140838623,-0.006785285659134388,0.065172106027603149,-0.20600171387195587,0.036467228084802628,0.037743531167507172,-0.037876464426517487,-0.1045602485537529,0.021881893277168274,-0.57501602172851562,0.082472346723079681, 
  /* [0][1][][] */ -0.29453432559967041,-0.37431594729423523,-0.32255998253822327,-0.22459746897220612,-0.071495652198791504,0.40918901562690735,0.6041872501373291,-0.27835589647293091,-0.10378547757863998,-0.14828148484230042,-0.076564311981201172,0.15635547041893005,0.66461712121963501,-15.169624328613281,0.085552327334880829,-0.92455017566680908,-14.175686836242676,-0.079669252038002014,0.36376729607582092,-0.50520098209381104,0.20033837854862213,-0.49805942177772522,-0.58879339694976807,-0.20440812408924103,0.17302000522613525,-0.38011375069618225,-0.1155698373913765,-0.083940647542476654,1.3971762657165527,-0.12863968312740326,0.24993172287940979,0.64863502979278564,-0.42186087369918823,-0.038722284138202667,-0.055138465017080307,0.83273106813430786,-0.02757955901324749,-1.7660976648330688,-0.17419183254241943,0.36670315265655518,0.10903607308864594,0.58689075708389282,0.52160286903381348,-0.051974385976791382,-0.55008113384246826,-0.46966412663459778,0.84359389543533325,0.66440743207931519, 0.43555492162704468,-0.24392580986022949,-0.92871743440628052,-0.65492385625839233,0.88921612501144409,0.30760213732719421,0.57286685705184937,-0.33521628379821777,0.40862023830413818,-0.17219331860542297,-0.41013225913047791,0.17788019776344299,0.93424111604690552,-3.3925542831420898,-0.020296892151236534,1.2248852252960205,-6.9975090026855469,-0.10790640860795975,0.50971895456314087,-0.83485519886016846,0.6167374849319458,-0.71471405029296875,-0.6843755841255188,-0.19197498261928558,0.51921546459197998,-0.31865561008453369,-0.18535295128822327,-0.28111812472343445,-1.3031412363052368,-0.27324566245079041,-0.1395738273859024,0.99063551425933838,0.27357631921768188,-0.051092550158500671,0.49767562747001648,1.259848952293396,-0.05389433354139328,-2.9333376884460449,-0.15789513289928436,0.36757186055183411,0.15858380496501923,1.2447441816329956,0.63975721597671509,-0.055791694670915604,-0.68223416805267334,-0.50993168354034424,1.2901413440704346,0.70506072044372559, -0.18199983239173889,0.090072564780712128,-0.45099785923957825,-0.44174617528915405,-0.83921313285827637,-0.17145363986492157,0.18684902787208557,-0.09881591796875,0.51019537448883057,-0.026961509138345718,-0.28223827481269836,0.049870938062667847,0.41419902443885803,-16.399894714355469,-0.077547572553157806,-0.42071685194969177,-4.3217730522155762,-0.025583522394299507,0.21852515637874603,-0.47021925449371338,0.27120187878608704,-0.46511384844779968,-0.22113901376724243,-0.038323227316141129,0.1939983069896698,-0.019583724439144135,-0.066562004387378693,-0.13239520788192749,0.16213817894458771,-0.19168840348720551,-0.06976800411939621,0.15147954225540161,0.27902102470397949,-0.044719047844409943,0.45742601156234741,0.22390444576740265,-0.028760788962244987,-1.4392658472061157,0.0030833752825856209,-0.060319326817989349,0.095058463513851166,0.53097319602966309,0.049553059041500092,-0.035342827439308167,-0.35132357478141785,-0.14869463443756104,0.66979169845581055,0.1954464465379715, 
  /* [0][2][][] */ -0.20932437479496002,-0.31530818343162537,-0.2468930184841156,-0.17947335541248322,-0.0023864535614848137,0.25920575857162476,-0.030523709952831268,-0.09297025203704834,-0.15128843486309052,-0.080117858946323395,-0.05818064883351326,0.082446984946727753,0.5683562159538269,-29.910606384277344,-0.39549979567527771,-0.6084170937538147,-5.0532617568969727,-0.016876881942152977,0.25867590308189392,0.49093964695930481,0.25110787153244019,-0.20038305222988129,-0.069577768445014954,-0.09755793958902359,0.13588154315948486,-0.17600975930690765,-0.016854634508490562,-0.12981127202510834,0.82743072509765625,0.060697630047798157,0.15127308666706085,0.47846594452857971,1.0345016717910767,-0.012008663266897202,-0.14712059497833252,-0.086685262620449066,-0.074849121272563934,0.81192094087600708,-0.028978778049349785,0.12599338591098785,0.024537390097975731,0.37145331501960754,0.075337924063205719,-0.026928246021270752,0.58169466257095337,-0.31127500534057617,0.034386761486530304,0.16833783686161041, 0.29918470978736877,-0.21614824235439301,-0.64226001501083374,-0.44423162937164307,0.56842035055160522,0.14001306891441345,0.03981274738907814,-0.12395302206277847,0.19478048384189606,-0.096211336553096771,-0.11887142807245255,0.077346906065940857,0.60883188247680664,-6.0131850242614746,0.049364540725946426,0.88905930519104004,-2.8593630790710449,-0.02712937630712986,0.3109760582447052,0.77144926786422729,0.39593261480331421,-0.31287592649459839,-0.10468083620071411,-0.093772038817405701,0.3833223283290863,-0.22032497823238373,-0.028165522962808609,-0.21804438531398773,-0.55005145072937012,0.084444634616374969,-0.088939875364303589,0.86445736885070801,-0.17058701813220978,-0.021836744621396065,0.26115667819976807,0.057358726859092712,-0.10003835707902908,1.1653121709823608,-0.024949498474597931,-0.0034750385675579309,0.027573458850383759,0.31383267045021057,0.074354752898216248,-0.032066643238067627,0.76822108030319214,-0.4025452733039856,-0.12594246864318848,0.21943378448486328, -0.098267592489719391,0.084469705820083618,-0.30330148339271545,-0.19148087501525879,-0.55804747343063354,-0.139964759349823,0.13186474144458771,-0.031226744875311852,0.23671208322048187,-0.0068196370266377926,-0.048033431172370911,0.045013464987277985,0.23228989541530609,-10.07728099822998,0.3479747474193573,-0.27826845645904541,-10.878596305847168,-0.0050230375491082668,0.12389824539422989,0.38851308822631836,0.35592359304428101,-0.17116871476173401,-0.0070107751525938511,-0.0038468774873763323,0.17538727819919586,0.0035134493373334408,-0.0072026494890451431,-0.14102701842784882,-0.15388649702072144,0.060483589768409729,-0.039683137089014053,0.30143734812736511,-0.8696666955947876,-0.019531141966581345,0.25503453612327576,0.035501286387443542,-0.016039194539189339,0.49508115649223328,0.044515486806631088,-0.15737752616405487,0.017273379489779472,0.34979197382926941,-0.026414543390274048,-0.0067344428971409798,0.37724605202674866,-0.13776510953903198,-0.046573743224143982,0.095599189400672913, 
};
const TfArray<4, int> tensor_dimension17 = { 4, { 1,3,3,48 } };
const MODEL_SECTION(EI_MODEL_SECTION) ALIGN(16) float tensor_data18[8] = { -4.7732596397399902, -17.254707336425781, 32.115768432617188, 31.112188339233398, 4.3195939064025879, -0.13250324130058289, 30.883747100830078, 7.3646001815795898, };
const MODEL_SECTION(EI_MODEL_SECTION) ALIGN(16) float tensor_data19[1*3*3*48] = { 
  /* [0][0][][] */ 0.05513228103518486,-0.034875843673944473,0.16182108223438263,1.2826310396194458,0.021778823807835579,0.3701898455619812,-0.015010714530944824,0.22036637365818024,0.092092528939247131,0.058711040765047073,0.03790624812245369,0.064911149442195892,-0.10805925726890564,-0.063251741230487823,-0.17684115469455719,0.063860654830932617,-0.019036887213587761,0.073687270283699036,-0.061389356851577759,-0.8147432804107666,-0.068188562989234924,-0.20309440791606903,0.92660403251647949,-0.077832654118537903,-0.019045418128371239,0.033135689795017242,-0.16388371586799622,0.033112946897745132,-0.040192171931266785,0.34058481454849243,0.068216890096664429,0.84689700603485107,1.1302413940429688,0.20463964343070984,0.31061196327209473,-0.17524838447570801,0.016894765198230743,0.22011910378932953,-0.015120323747396469,0.0015095719136297703,0.12383879721164703,-0.15704555809497833,-0.051358304917812347,-0.049116436392068863,0.10267295688390732,0.013163840398192406,-0.084565386176109314,-0.043941479176282883, 1.6337988376617432,0.10489513725042343,0.1199982762336731,-1.5116126537322998,0.15382330119609833,0.39572042226791382,0.34728169441223145,0.084371902048587799,0.71667134761810303,0.95139187574386597,0.028797514736652374,0.38780868053436279,-0.65449649095535278,-0.16787800192832947,0.01880200207233429,0.058702535927295685,1.1314020156860352,-0.51227039098739624,-0.15849626064300537,-0.40285766124725342,-1.0839898586273193,0.230539470911026,-0.79286670684814453,0.10932563245296478,0.11527314037084579,0.39914765954017639,-0.92609298229217529,-0.35166451334953308,0.21877394616603851,1.4723944664001465,0.041784755885601044,-1.0721216201782227,0.3095552921295166,-0.43954157829284668,1.0562939643859863,0.063312053680419922,-0.64074492454528809,-0.28813695907592773,-0.062249928712844849,0.091239362955093384,-0.56904160976409912,-0.22694024443626404,-0.17427083849906921,0.01836918480694294,-0.2154790461063385,-0.039889775216579437,-1.6639386415481567,0.096819445490837097, -0.3981330394744873,-0.035938754677772522,0.061567854136228561,0.16845692694187164,-0.0026808753609657288,0.29715147614479065,0.13956287503242493,0.13771618902683258,0.16082534193992615,0.060563120990991592,-0.051432829350233078,0.28088834881782532,-0.18660631775856018,-0.022249802947044373,0.060971617698669434,0.028001103550195694,-0.92162525653839111,0.26051589846611023,-0.0083607090637087822,0.55660003423690796,-0.34007817506790161,-0.10610063374042511,-0.1285673975944519,-0.05116693302989006,-0.029725568369030952,-0.33176478743553162,-0.081863753497600555,0.11737742274999619,-0.14781689643859863,0.36135676503181458,0.016187218949198723,-0.1868048757314682,0.45000305771827698,-0.1681179404258728,0.13086129724979401,-0.11962014436721802,-0.0094665726646780968,0.30117121338844299,0.47612202167510986,-0.0095226839184761047,0.35801881551742554,0.088852129876613617,-0.09093911200761795,0.070840530097484589,-0.26950934529304504,0.012880119495093822,-0.019646331667900085,-0.026092305779457092, 
  /* [0][1][][] */ 1.6111202239990234,0.073563136160373688,0.0069929254241287708,-1.1670547723770142,0.075639046728610992,-0.12215391546487808,1.1023241281509399,-0.12462418526411057,0.053503341972827911,0.065173998475074768,-0.045432917773723602,0.48082771897315979,-0.086937643587589264,-0.0095359161496162415,0.068794742226600647,-0.23832960426807404,-0.00099990074522793293,-0.45520016551017761,-0.15820273756980896,-0.61442649364471436,0.1110580787062645,-0.67008864879608154,-0.90384018421173096,-0.14210282266139984,0.030343258753418922,0.55648046731948853,-0.44003874063491821,-0.53055965900421143,-0.076189219951629639,2.276512622833252,0.052383013069629669,-0.93479633331298828,0.94497591257095337,-0.37974461913108826,-0.024681169539690018,0.80919539928436279,-0.047636900097131729,0.37043583393096924,-0.47424754500389099,0.032242182642221451,-0.44896650314331055,-0.294931560754776,0.2235933244228363,-0.53558021783828735,-0.28031948208808899,-0.068080306053161621,-0.16016858816146851,-0.019689913839101791, 0.33934468030929565,-1.4051986932754517,-0.99620646238327026,1.3521382808685303,-0.7004387378692627,-0.57695817947387695,-3.9691352844238281,-0.9886096715927124,-0.72846025228500366,-0.72267246246337891,0.48824268579483032,-1.152592658996582,1.6289212703704834,0.89353632926940918,0.13523086905479431,-0.93668913841247559,-0.73968064785003662,1.1573406457901001,0.33974570035934448,-0.76797741651535034,1.3697181940078735,1.1700811386108398,0.81715697050094604,0.97003006935119629,0.84884411096572876,-0.71641403436660767,-3.7277946472167969,0.11677911877632141,-1.1755762100219727,-8.7585592269897461,0.41304096579551697,1.0945370197296143,-7.0609688758850098,0.91003376245498657,-0.24332651495933533,-0.26257985830307007,2.0350461006164551,-0.79086130857467651,1.4788157939910889,0.099873341619968414,0.91270262002944946,-0.18545369803905487,0.73819988965988159,0.77766144275665283,0.7894434928894043,-0.59731370210647583,1.336916446685791,0.45539116859436035, 0.69911819696426392,0.05705585703253746,0.38381263613700867,-0.16245831549167633,0.030073948204517365,-0.27417972683906555,1.3828799724578857,0.14395909011363983,-0.13326312601566315,0.10715886950492859,-0.39998650550842285,-0.07356494665145874,-0.0021085706539452076,-0.28453266620635986,0.49671372771263123,0.032516147941350937,0.5593903660774231,-0.5999646782875061,-0.18886174261569977,0.60998332500457764,0.14855042099952698,-0.41352394223213196,0.083137527108192444,-0.25759151577949524,0.0071722841821610928,0.03707604855298996,-1.1025534868240356,0.28179720044136047,0.19004848599433899,2.7665133476257324,0.00050073838792741299,0.029766593128442764,1.8045641183853149,-0.31439334154129028,0.0675521120429039,0.42430359125137329,-0.083661444485187531,0.40678191184997559,0.7835383415222168,-0.0076926914043724537,-0.58592426776885986,0.020447906106710434,-0.48893803358078003,-0.18889622390270233,0.1666295975446701,-0.081377014517784119,-0.1392158716917038,0.023589359596371651, 
  /* [0][2][][] */ -0.68219864368438721,-0.074041970074176788,0.20111729204654694,-0.20422573387622833,0.039094738662242889,0.15659680962562561,-1.1579347848892212,0.17539045214653015,0.049940291792154312,-0.17789545655250549,0.045883800834417343,0.29380655288696289,0.077965244650840759,-0.04317639023065567,-0.15093035995960236,0.13325203955173492,0.042483258992433548,0.19854189455509186,-0.035232912749052048,0.75715345144271851,0.064902313053607941,-0.29147720336914062,-0.11917208135128021,-0.097485348582267761,-0.025706460699439049,0.12689219415187836,-0.013339833356440067,0.20986004173755646,-0.090998083353042603,0.23390653729438782,0.20726878941059113,-0.27939382195472717,-1.0122997760772705,-0.31644231081008911,-0.26825404167175293,-0.24983054399490356,-0.01408030092716217,0.19777721166610718,0.10427021980285645,-0.017465502023696899,0.064907349646091461,-0.0092411777004599571,0.23991549015045166,-0.22396828234195709,-0.22631220519542694,0.088297426700592041,-0.138227179646492,0.07515842467546463, 0.87400627136230469,1.3913332223892212,0.59110331535339355,0.2441481351852417,0.090517200529575348,-0.089653939008712769,3.8711400032043457,0.2742786705493927,0.10885703563690186,-0.022759264335036278,0.167552649974823,0.23682163655757904,-0.070424377918243408,-0.006289101205766201,-0.35448607802391052,0.1833767294883728,-0.51581442356109619,-0.51445186138153076,-0.095456764101982117,0.87911093235015869,-0.3987872302532196,0.45180940628051758,0.087133079767227173,0.14517731964588165,0.20906910300254822,-0.3541659414768219,-1.1783328056335449,0.12223055213689804,0.71123558282852173,0.068773917853832245,0.56104010343551636,0.19030801951885223,4.7356328964233398,-0.19035634398460388,0.057855229824781418,-0.22671277821063995,-0.40615668892860413,-0.10216118395328522,-0.14026045799255371,0.093373574316501617,-0.19819679856300354,-0.028229814022779465,-0.23526854813098907,0.27598199248313904,0.12607713043689728,-0.15635591745376587,0.099677324295043945,-0.54606759548187256, -0.52958828210830688,-0.044788379222154617,0.052688263356685638,-0.045412611216306686,0.02838975191116333,-0.021057745441794395,-1.9121614694595337,0.061513319611549377,-0.10115708410739899,-0.076405346393585205,-0.15360184013843536,-0.36286142468452454,0.25393262505531311,-0.065682448446750641,-0.034047290682792664,0.084953777492046356,0.29679426550865173,0.21672523021697998,-0.021441401913762093,-0.91228973865509033,0.25090819597244263,-0.08852793276309967,0.035063747316598892,-0.072436496615409851,-0.045792117714881897,0.060347802937030792,-0.29565531015396118,-0.22900508344173431,-0.1350671797990799,0.56840026378631592,0.023078581318259239,0.075023852288722992,-1.1315023899078369,0.623130202293396,-0.30999106168746948,-0.1428113728761673,-0.07699073851108551,0.23038560152053833,0.29239621758460999,-0.047648482024669647,0.030380181968212128,0.019789755344390869,-0.21692702174186707,0.042610786855220795,-0.26837846636772156,0.62354493141174316,-0.065395377576351166,-0.017124900594353676, 
};
const MODEL_SECTION(EI_MODEL_SECTION) ALIGN(16) float tensor_data20[8] = { -18.48577880859375, 21.52122688293457, -18.282651901245117, -18.867973327636719, 18.695377349853516, -1.7993811368942261, 24.482950210571289, 43.00445556640625, };
const MODEL_SECTION(EI_MODEL_SECTION) ALIGN(16) float tensor_data21[1*3*3*48] = { 
  /* [0][0][][] */ 0.18635465204715729,-0.17624624073505402,0.8147737979888916,0.1488843560218811,0.28780597448348999,-0.094222545623779297,0.71110314130783081,-0.32820579409599304,0.20362353324890137,-0.16579973697662354,-0.18873199820518494,0.19209149479866028,0.10704169422388077,-0.068973027169704437,-0.48420709371566772,-0.7096361517906189,0.66003894805908203,0.19990876317024231,0.23165175318717957,0.61029690504074097,0.22560399770736694,-0.6648222804069519,-0.34712314605712891,0.28928190469741821,-0.18184570968151093,-0.19150196015834808,-0.04846537858247757,-0.17563058435916901,-0.35728535056114197,0.32251879572868347,-0.29932612180709839,-0.71510720252990723,-0.020608155056834221,0.18632170557975769,0.095223002135753632,0.12204054743051529,-0.24778428673744202,0.21576707065105438,-0.1999053955078125,-0.085655078291893005,0.24423182010650635,-0.22965504229068756,0.20544667541980743,0.24658286571502686,-0.11815949529409409,0.08557022362947464,0.30754169821739197,-0.047410923987627029, 0.21979212760925293,-0.18206961452960968,1.0602847337722778,0.1815163642168045,-0.4150276780128479,-0.18972648680210114,-0.38572770357131958,-0.4357018768787384,0.32287922501564026,-0.19337943196296692,-0.14812715351581573,0.30027958750724792,0.16350632905960083,-0.17606206238269806,-0.64862626791000366,0.71533238887786865,-0.25028359889984131,0.24502484500408173,0.39193433523178101,0.99229955673217773,0.28573510050773621,-1.0274331569671631,0.2226879745721817,0.40522921085357666,-0.30100053548812866,-0.36580953001976013,-0.051928594708442688,-0.21845866739749908,0.29806876182556152,0.42086699604988098,-0.14618471264839172,-0.80139559507369995,-0.13811834156513214,0.35312095284461975,0.11347636580467224,0.160223588347435,-0.31168881058692932,0.33780068159103394,-0.33335539698600769,-0.063796170055866241,0.36475998163223267,-0.29707005620002747,0.29404935240745544,0.35768225789070129,-0.093862839043140411,-1.0636310577392578,0.37997514009475708,-0.14567556977272034, 0.094174668192863464,-0.086230911314487457,0.57932621240615845,0.080111458897590637,0.099849946796894073,-0.11546576768159866,-0.32351166009902954,-0.19985194504261017,0.14084884524345398,-0.059178013354539871,0.01248061191290617,0.13789266347885132,0.058833092451095581,-0.12730100750923157,-0.37213262915611267,-0.011842821724712849,-0.35513016581535339,0.095947623252868652,0.16478921473026276,0.54449063539505005,0.11171569675207138,-0.48674032092094421,0.135382279753685,0.14328452944755554,-0.15772180259227753,-0.2169894278049469,-0.032801311463117599,-0.061841372400522232,0.16469679772853851,0.1616550087928772,0.41309511661529541,-0.56080466508865356,-0.13542144000530243,0.19378361105918884,0.048132885247468948,0.064242467284202576,-0.11094281077384949,0.15973007678985596,-0.14919175207614899,-0.040671959519386292,0.19113914668560028,-0.12519115209579468,0.12261070311069489,0.17151693999767303,-0.0075359693728387356,-0.07838895171880722,0.14915475249290466,-0.10403855890035629, 
  /* [0][1][][] */ 0.24918954074382782,-0.21236617863178253,-0.34949731826782227,0.19718049466609955,0.29492014646530151,-0.22786284983158112,0.85072594881057739,-0.46109351515769958,0.29065421223640442,-0.21288576722145081,-0.16675132513046265,0.32999315857887268,0.17187291383743286,-0.17766085267066956,-0.094831913709640503,-1.002936840057373,0.82708066701889038,0.27446222305297852,0.34832480549812317,-0.30036225914955139,0.2837352454662323,0.96228969097137451,-0.53164023160934448,0.41249409317970276,0.42336741089820862,-0.36191511154174805,-0.070543013513088226,-0.27085748314857483,-0.67691409587860107,0.45305070281028748,-0.32618224620819092,-0.054611276835203171,-0.14334610104560852,0.31802794337272644,0.14918635785579681,0.18532505631446838,-0.32621833682060242,0.32253235578536987,-0.32409289479255676,0.33993786573410034,0.40743681788444519,-0.31772443652153015,0.31223216652870178,0.36308377981185913,-0.11138784885406494,0.88574838638305664,0.37865856289863586,-0.13079051673412323, 0.34240448474884033,-0.23822265863418579,-0.54961287975311279,0.26973810791969299,-0.6814570426940918,-0.35514375567436218,-0.61622065305709839,-0.65964788198471069,0.42989575862884521,-0.23983263969421387,-0.29925698041915894,0.5147133469581604,0.26042202115058899,-0.20564989745616913,-0.15367947518825531,0.75529086589813232,-0.42883169651031494,0.32436260581016541,0.60077768564224243,-0.40132123231887817,0.43120139837265015,1.1396182775497437,0.2914905846118927,0.72264742851257324,0.73528701066970825,-0.60569506883621216,-0.09572889655828476,-0.34934407472610474,0.28024676442146301,0.67417401075363159,-0.13786934316158295,0.099976547062397003,-0.20549824833869934,0.57042700052261353,0.17865391075611115,0.24631993472576141,-0.48939892649650574,0.52000194787979126,-0.51366037130355835,0.48463806509971619,0.61211478710174561,-0.40009278059005737,0.45520669221878052,0.50943458080291748,-0.16205663979053497,-0.096573144197463989,0.51502633094787598,-0.18239222466945648, 0.17128919064998627,-0.14580334722995758,-0.28330540657043457,0.13988150656223297,0.19791685044765472,-0.17316542565822601,-0.33121702075004578,-0.31829020380973816,0.19041219353675842,-0.079321354627609253,-0.1422649472951889,0.23573887348175049,0.096685200929641724,-0.086186066269874573,-0.11346277594566345,0.07727358490228653,-0.4146038293838501,0.13020303845405579,0.27658483386039734,-0.23648270964622498,0.19399134814739227,0.5773736834526062,0.21547092497348785,0.36451005935668945,0.38034641742706299,-0.30611315369606018,-0.04602457582950592,-0.12094905227422714,0.1889050155878067,0.28885123133659363,0.60002917051315308,0.09482371062040329,-0.10051519423723221,0.30784496665000916,0.066933952271938324,0.09511159360408783,-0.18627627193927765,0.24619914591312408,-0.23766294121742249,0.21324115991592407,0.29300245642662048,-0.18111543357372284,0.19229999184608459,0.2485065758228302,-0.078800097107887268,-0.563240647315979,0.2397647500038147,-0.08105817437171936, 
  /* [0][2][][] */ 0.11806219071149826,-0.095255516469478607,-0.38940820097923279,0.10557001829147339,0.14179475605487823,-0.14677000045776367,0.42313963174819946,-0.22232168912887573,0.13581810891628265,-0.13551710546016693,-0.0097673125565052032,0.16016283631324768,0.11368590593338013,-0.11745602637529373,0.55557000637054443,-0.62678754329681396,0.480357825756073,0.13025863468647003,0.16273097693920135,-0.23682926595211029,0.086559228599071503,-0.098032422363758087,-0.32338052988052368,0.16802044212818146,-0.13057367503643036,-0.211290642619133,-0.037101659923791885,-0.13581445813179016,-0.3986973762512207,0.16322872042655945,-0.19202920794487,0.56966722011566162,-0.12045752257108688,0.16704580187797546,0.066423095762729645,0.082994639873504639,-0.1031314805150032,0.15172459185123444,-0.1726071834564209,-0.33446779847145081,0.22952482104301453,-0.15868309140205383,0.14284554123878479,0.17976930737495422,-0.029334913939237595,0.12772540748119354,0.16047976911067963,-0.10518252104520798, 0.19572153687477112,-0.13854239881038666,-0.40379214286804199,0.16838714480400085,-0.30327409505844116,-0.17580863833427429,-0.4888710081577301,-0.34486478567123413,0.17336103320121765,-0.14488953351974487,-0.15670010447502136,0.24612782895565033,0.1512807160615921,-0.07586967945098877,0.86390835046768188,0.24633713066577911,-0.30320605635643005,0.14983183145523071,0.28955972194671631,-0.33326604962348938,0.18651384115219116,-0.16040848195552826,0.17662815749645233,0.37962695956230164,-0.27609419822692871,-0.3129621148109436,-0.059040069580078125,-0.16970713436603546,0.16581982374191284,0.32422128319740295,-0.10949991643428802,0.73652195930480957,-0.089547693729400635,0.29200628399848938,0.079056143760681152,0.11233848333358765,-0.19001579284667969,0.25121426582336426,-0.26732030510902405,-0.40597403049468994,0.33442455530166626,-0.21273157000541687,0.21349388360977173,0.24888953566551208,-0.10820872336626053,0.40843740105628967,0.25269332528114319,-0.0740228071808815, 0.11063884198665619,-0.074551068246364594,-0.22209754586219788,0.09618842601776123,0.15346302092075348,-0.054695058614015579,-0.12070354074239731,-0.17414313554763794,0.049984753131866455,-0.047620091587305069,-0.1231304258108139,0.11390474438667297,0.062776580452919006,0.0082300100475549698,0.45506435632705688,0.18317230045795441,-0.23229044675827026,0.055680181831121445,0.13545864820480347,-0.2470536082983017,0.095111772418022156,-0.004940306767821312,0.16832205653190613,0.23527882993221283,-0.1384025514125824,-0.13468173146247864,-0.036807410418987274,-0.066661857068538666,0.17529046535491943,0.17667551338672638,0.29294151067733765,0.42110219597816467,0.0018263825913891196,0.15362256765365601,0.020596267655491829,0.043266545981168747,-0.088433489203453064,0.12427183240652084,-0.11632392555475235,-0.21257928013801575,0.13917095959186554,-0.10260238498449326,0.090368114411830902,0.11682327091693878,-0.080410227179527283,0.071395576000213623,0.12537913024425507,-0.0058879689313471317, 
};
const MODEL_SECTION(EI_MODEL_SECTION) ALIGN(16) float tensor_data22[16] = { -26.092172622680664, 3.4035944938659668, 0.90201371908187866, -10.452058792114258, -0.70425289869308472, -8.5638284683227539, -12.893359184265137, -26.928625106811523, 1.3365914821624756, 19.49034309387207, 25.060211181640625, -7.5091648101806641, -3.7507598400115967, -34.745376586914062, 21.430482864379883, -24.777137756347656, };
const MODEL_SECTION(EI_MODEL_SECTION) ALIGN(16) float tensor_data23[1*3*3*96] = { 
  /* [0][0][][] */ -0.16294807195663452,0.030614955350756645,-0.25272920727729797,0.18244685232639313,-0.13816647231578827,0.15848058462142944,-0.89942991733551025,-0.20765954256057739,0.085742898285388947,-0.1126675009727478,0.72106534242630005,-0.16144944727420807,0.026063838973641396,-0.14063830673694611,-0.042519155889749527,0.27939358353614807,0.021324547007679939,0.20012690126895905,-0.10141623020172119,0.063997134566307068,0.14286608994007111,0.015466773882508278,0.20209453999996185,-0.50851136445999146,0.021800817921757698,0.20611122250556946,0.33843401074409485,0.3488675057888031,0.11543387919664383,0.055358942598104477,0.12109237909317017,0.3958110511302948,-0.032658133655786514,0.22532558441162109,0.069873973727226257,-0.12198460102081299,0.071898572146892548,0.26909419894218445,-0.11065802723169327,-0.19387124478816986,0.23899573087692261,0.12244939059019089,0.43338868021965027,0.12249670177698135,-0.77607959508895874,-0.11543979495763779,0.21654196083545685,-0.045011736452579498,-0.040123041719198227,-0.16917787492275238,-0.090162314474582672,-0.045865725725889206,0.4715023934841156,0.06911420077085495,-0.12026885151863098,0.053047399967908859,-0.031940266489982605,-0.38441655039787292,0.14547832310199738,-0.12139783799648285,0.44521939754486084,-0.010371341370046139,1.7641414403915405,0.15007711946964264,-0.10199414193630219,-0.090674735605716705,0.035659611225128174,-0.25574272871017456,0.95507687330245972,0.34877052903175354,0.013666920363903046,-0.029087917879223824,0.28395366668701172,-0.16635036468505859,0.50342661142349243,0.044969402253627777,0.3461487889289856,-0.28223437070846558,0.34637889266014099,0.63503152132034302,0.00038146873703226447,0.10943690687417984,0.50994449853897095,-0.11799377202987671,0.2215726375579834,0.1161649078130722,-0.16145436465740204,-0.20855739712715149,0.34369203448295593,-0.031362943351268768,-0.11099009215831757,0.41968819499015808,0.01604803279042244,0.34804591536521912,-0.65117663145065308,0.042396184056997299, -0.45734989643096924,0.059179544448852539,-0.1029895544052124,0.01705789752304554,0.40308615565299988,-0.059988189488649368,-0.14600794017314911,-0.48858731985092163,0.19887697696685791,0.25005596876144409,-0.9203336238861084,-0.08665139228105545,-0.098015092313289642,-0.22119930386543274,0.035572532564401627,0.46669307351112366,0.076539136469364166,-0.3923088014125824,-0.045772455632686615,-0.29844704270362854,0.14648771286010742,-0.74196773767471313,0.80264675617218018,0.37080246210098267,-0.57010692358016968,-0.36629131436347961,-0.79778951406478882,-0.12000114470720291,0.14950032532215118,0.15940800309181213,-0.25768643617630005,0.1449635922908783,0.64093762636184692,0.092729687690734863,-0.10724778473377228,-0.0083080129697918892,-0.36728581786155701,0.70341485738754272,-0.11406553536653519,-0.96020686626434326,0.10603617131710052,-0.24819988012313843,-0.47870358824729919,0.098930373787879944,0.4282396137714386,-0.2605205774307251,1.0832901000976562,-0.43449273705482483,-0.28887957334518433,0.42961165308952332,0.63089996576309204,0.044710464775562286,0.37274545431137085,-0.81349056959152222,0.46648463606834412,1.1679068803787231,0.57414436340332031,0.45498451590538025,-0.52573537826538086,0.34297636151313782,2.0713300704956055,0.2324659526348114,0.042451865971088409,-0.11401426792144775,0.31103014945983887,-0.31086292862892151,-0.29984906315803528,-0.0023777405731379986,0.53604710102081299,-0.29494526982307434,-0.17844705283641815,0.18672950565814972,-0.17075259983539581,-0.24770531058311462,0.77184587717056274,-0.042138349264860153,-0.61408108472824097,-0.13277316093444824,-0.36573764681816101,0.62796258926391602,-0.50214862823486328,0.46966373920440674,-0.059547774493694305,0.066823273897171021,-0.061348669230937958,0.19248826801776886,0.32671260833740234,-0.43667399883270264,-0.26785781979560852,0.25530555844306946,-0.1037447601556778,0.36512824892997742,-0.77568554878234863,-0.5597040057182312,5.548774242401123,-0.43219739198684692, 0.0049690036103129387,-0.017487926408648491,-0.28643524646759033,-0.12864041328430176,0.056000590324401855,0.13134758174419403,0.54740774631500244,0.07956250011920929,-0.017842948436737061,-0.036804087460041046,0.034263785928487778,1.0997235774993896,0.0025078642647713423,-0.22104352712631226,-0.094197630882263184,0.036522205919027328,-0.051506049931049347,0.21741639077663422,-0.048971589654684067,0.32102444767951965,0.012951950542628765,0.18668356537818909,0.14985960721969604,-0.48515689373016357,0.013207949697971344,-0.36490121483802795,0.079312674701213837,0.094546310603618622,-0.04058292880654335,0.022835075855255127,0.24165204167366028,-0.6513829231262207,0.23851177096366882,0.13987860083580017,0.062356330454349518,-0.18413890898227692,0.17820319533348083,0.021337930113077164,-0.056555744260549545,-0.15481813251972198,0.088455863296985626,0.033475462347269058,-0.25361952185630798,0.051728960126638412,0.21027231216430664,-0.065743796527385712,0.17728577554225922,0.011627735570073128,0.026693640276789665,-0.066831864416599274,0.080645352602005005,-0.036453161388635635,0.040946923196315765,0.073641307651996613,-0.073060311377048492,0.16715168952941895,-0.1054239496588707,0.48433986306190491,0.033109068870544434,-0.0088179595768451691,0.18266673386096954,-0.12139526754617691,0.029691902920603752,-0.095214083790779114,-0.19956301152706146,-0.14404578506946564,0.094895832240581512,-0.24377162754535675,-1.5248955488204956,-0.063590943813323975,0.3668561577796936,-0.067598327994346619,-0.4537351131439209,-0.11188943684101105,-0.092956461012363434,0.17876166105270386,0.22123517096042633,-0.024407815188169479,0.075451716780662537,0.1213727667927742,-0.099300451576709747,0.17314444482326508,-0.14041788876056671,-0.02654595673084259,-0.23607552051544189,0.083804160356521606,0.15079306066036224,0.37401300668716431,-0.23355305194854736,-0.080747678875923157,0.20561294257640839,-0.061553522944450378,0.1250898540019989,0.11272940784692764,-0.36035645008087158,-0.15688873827457428, 
  /* [0][1][][] */ -0.38393893837928772,0.27467930316925049,-0.22620333731174469,0.066695600748062134,-0.67558115720748901,-0.11640262603759766,-0.15535922348499298,-0.17240972816944122,0.13511763513088226,1.7610265016555786,-0.32421866059303284,-0.38503503799438477,-0.18330951035022736,-0.43505263328552246,-0.068628758192062378,0.32128995656967163,0.53271102905273438,-0.30589732527732849,-0.26063555479049683,-0.25094333291053772,0.11246766149997711,-0.97400587797164917,-0.17725074291229248,0.22253130376338959,-0.3269953727722168,-0.55997937917709351,-0.96908628940582275,-0.046633277088403702,0.21101561188697815,0.15966132283210754,-0.26264494657516479,0.23132593929767609,-0.67646253108978271,-0.62552320957183838,-0.4305381178855896,0.023934364318847656,0.99532014131546021,-0.016264192759990692,-0.090096518397331238,0.35491037368774414,-0.22553832828998566,1.1323398351669312,0.023406095802783966,-0.016251612454652786,0.3237203061580658,-0.10451838374137878,-0.10615936666727066,-0.31169739365577698,0.4864521324634552,0.38504010438919067,-0.041678112000226974,0.13232029974460602,0.4265897274017334,0.122340127825737,-0.52603650093078613,-0.33903476595878601,0.49834087491035461,0.10314780473709106,-0.64897602796554565,0.51519614458084106,-0.58748340606689453,-0.593189537525177,0.2866356372833252,0.70884406566619873,-0.44317317008972168,-0.29108262062072754,-0.25806421041488647,0.6277695894241333,-0.51047313213348389,1.2345442771911621,-0.16845490038394928,0.21435554325580597,-0.12798561155796051,-0.2774580717086792,0.26385706663131714,0.087633170187473297,-0.74871826171875,-0.15513876080513,1.4662380218505859,0.46626409888267517,0.95654481649398804,0.26017993688583374,0.018416602164506912,-0.0044709113426506519,0.73542952537536621,0.11691544204950333,-0.55759483575820923,0.49180924892425537,-0.35865160822868347,-0.16526764631271362,-0.83646965026855469,0.20638754963874817,0.60600441694259644,1.8305677175521851,6.7721767425537109,-0.2007586807012558, 1.208215594291687,0.59904873371124268,1.5923622846603394,0.22078359127044678,-0.36843708157539368,-0.90976566076278687,1.8338155746459961,0.084424890577793121,0.67114400863647461,-2.3407785892486572,0.11182224005460739,-2.2423214912414551,-0.6422387957572937,2.2687909603118896,1.1425489187240601,0.65131676197052002,-0.064156457781791687,-1.6278747320175171,-0.18006950616836548,-2.4194188117980957,0.24406713247299194,0.17407529056072235,-0.42362162470817566,1.865033745765686,1.18877112865448,1.5132739543914795,-0.41873624920845032,-0.93304824829101562,0.72592133283615112,0.55356389284133911,-0.66631388664245605,1.0479521751403809,-0.044896587729454041,-1.057916522026062,-0.93585729598999023,1.0183954238891602,-1.9522057771682739,-0.2419416755437851,0.17975133657455444,0.83098971843719482,-1.5139704942703247,-1.6719322204589844,2.018280029296875,0.91964900493621826,1.1734883785247803,-0.24089710414409637,-0.92450851202011108,1.262022852897644,-0.050874732434749603,1.0928595066070557,-1.6180483102798462,-0.84729987382888794,-1.2265899181365967,1.6309380531311035,1.8796260356903076,-2.6407525539398193,1.9964635372161865,-1.3887739181518555,-0.22619248926639557,0.16170428693294525,-1.7141907215118408,-0.18862394988536835,-0.97263157367706299,-0.37462639808654785,0.9341663122177124,1.0258502960205078,-0.22284123301506042,0.62949419021606445,1.8397389650344849,-1.0300436019897461,-1.1865710020065308,0.51484596729278564,-0.15272702276706696,0.67247015237808228,-0.93763566017150879,-1.4054105281829834,-2.6383097171783447,0.27522283792495728,-0.85035252571105957,1.2260453701019287,-0.31786450743675232,0.97070413827896118,0.31721290946006775,1.036423921585083,-0.22123053669929504,-0.50506836175918579,-0.14548100531101227,-1.1335200071334839,-1.2197829484939575,-0.59711337089538574,-0.18483434617519379,-0.65440863370895386,-0.12961745262145996,-2.2926981449127197,-30.493486404418945,0.4003627598285675, -0.2226308286190033,0.30735495686531067,-0.47435414791107178,0.0038498523645102978,1.0035178661346436,0.49414840340614319,-0.30185925960540771,0.18204756081104279,0.027377186343073845,0.43860405683517456,-0.094178169965744019,-0.078512117266654968,-0.15854308009147644,-0.54177433252334595,-0.12281068414449692,-0.033017687499523163,-0.43306589126586914,-0.2770717442035675,-0.36592954397201538,0.73792362213134766,0.059449702501296997,0.58995276689529419,-0.075716763734817505,-1.7194173336029053,-0.31421765685081482,-0.48501807451248169,0.95535951852798462,0.53183412551879883,0.058105982840061188,0.15515823662281036,0.37585166096687317,0.066912852227687836,0.67139726877212524,-0.39697650074958801,0.94332414865493774,-0.031158788129687309,0.83309584856033325,0.02675301767885685,-0.17384403944015503,0.10651378333568573,0.42473438382148743,0.30140042304992676,-0.3691200315952301,0.0020412481389939785,-0.21310631930828094,-0.10604063421487808,-0.11327008903026581,-0.41715797781944275,0.3102240264415741,0.12421076744794846,-0.14204423129558563,0.25924456119537354,-0.060035210102796555,-0.045917052775621414,-1.0961809158325195,-0.28622299432754517,0.38611143827438354,0.21512593328952789,0.66119951009750366,-0.35983717441558838,0.037048917263746262,0.85799998044967651,-0.0033382009714841843,-0.20134583115577698,-0.82215958833694458,-0.23188415169715881,-0.23135599493980408,0.49619394540786743,0.21770046651363373,-0.15926285088062286,1.0276750326156616,0.10165950655937195,-0.062838256359100342,-0.28798627853393555,0.079658925533294678,0.51234972476959229,-0.60590672492980957,-0.016091397032141685,-0.48602825403213501,-0.018849784508347511,-0.34079852700233459,0.049350768327713013,0.18341253697872162,0.19393926858901978,-0.52064132690429688,0.14202284812927246,0.75328892469406128,-0.49995321035385132,0.3096860945224762,-0.10672498494386673,1.0498991012573242,-0.052458833903074265,-0.69030195474624634,0.60405457019805908,8.0759868621826172,0.062747634947299957, 
  /* [0][2][][] */ -0.042973373085260391,-0.18753544986248016,-0.26684436202049255,-0.10537303984165192,-0.034510567784309387,0.096570290625095367,0.58264535665512085,0.11543030291795731,-0.011889072135090828,0.17758160829544067,-0.14540405571460724,0.91647809743881226,0.14582598209381104,-0.60347765684127808,-0.070961423218250275,0.036406122148036957,0.17132477462291718,0.033466164022684097,0.035149447619915009,0.4199957549571991,-0.017867472022771835,0.23446635901927948,-0.10045713186264038,-0.36760064959526062,0.017256801947951317,-0.27812284231185913,0.076102249324321747,0.022501625120639801,-0.053246919065713882,-0.033859852701425552,0.25327152013778687,-0.61028969287872314,-0.20252387225627899,0.54455769062042236,-0.21321816742420197,-0.20415432751178741,0.4723736047744751,-0.19196954369544983,-0.11654667556285858,0.13011305034160614,0.098472334444522858,0.1193496361374855,-0.52884024381637573,0.13924247026443481,0.11806014180183411,-0.15756003558635712,-0.1030455008149147,-0.0060839387588202953,-0.03551977127790451,0.057979658246040344,0.20766742527484894,-0.051249105483293533,0.06861906498670578,0.019848419353365898,-0.31438839435577393,0.1374712735414505,-0.01529308408498764,0.48767712712287903,-0.25758260488510132,0.14102578163146973,-0.074128419160842896,-0.080692023038864136,0.066165313124656677,0.095807582139968872,-0.044657163321971893,-0.082789316773414612,0.068789117038249969,-0.26033896207809448,-0.792247474193573,0.1079169288277626,-0.19377034902572632,-0.051878999918699265,-0.42547494173049927,-0.15776978433132172,-0.0035561567638069391,0.19172543287277222,0.28885325789451599,-0.025352893397212029,0.65206676721572876,0.17192472517490387,0.16879092156887054,0.16281880438327789,-0.16278611123561859,0.12507772445678711,0.066823385655879974,0.10224070399999619,-0.11521818488836288,0.09657558798789978,0.048749804496765137,0.12124621868133545,0.18751661479473114,-0.027354776859283447,0.12850217521190643,0.71254700422286987,-1.6014578342437744,-0.10374253243207932, -0.2584136426448822,-0.04046953096985817,-0.33804205060005188,0.042067587375640869,-0.35733857750892639,0.52664244174957275,-0.35073068737983704,0.24660077691078186,0.026061559095978737,-0.10430771857500076,0.38727685809135437,-0.21459314227104187,0.7765234112739563,-0.11978738754987717,-0.16932211816310883,-0.085149466991424561,-0.0023956145159900188,-0.50294220447540283,-0.16733947396278381,0.46276634931564331,-0.042924698442220688,0.61244028806686401,-0.27609002590179443,-1.6428375244140625,-0.43941664695739746,-0.55848515033721924,0.77975326776504517,0.51190531253814697,0.079096242785453796,0.18904511630535126,0.27759614586830139,-0.015598286874592304,-0.6522144079208374,0.51229923963546753,-0.11414061486721039,-0.18666011095046997,-0.43624284863471985,-0.14614786207675934,-0.24006055295467377,-0.024091163650155067,0.52427750825881958,-0.18291200697422028,-0.22653023898601532,0.26019632816314697,-0.24158927798271179,-0.090857818722724915,-0.15775406360626221,-0.46763026714324951,-0.22980132699012756,0.24627409875392914,0.86770486831665039,0.15800832211971283,-0.10989446938037872,-1.0210312604904175,0.44382199645042419,1.0780024528503418,0.27019476890563965,0.28769296407699585,0.38795024156570435,-0.2228977233171463,0.34100824594497681,-0.3847690224647522,-0.11389473080635071,4.6637283958261833e-05,0.13884095847606659,-0.21426218748092651,-0.39826804399490356,-0.273111492395401,-0.14679509401321411,-0.26184418797492981,-0.58252686262130737,0.094922915101051331,0.12665118277072906,-0.23711135983467102,-0.21947029232978821,-0.081218011677265167,-0.94061446189880371,0.051406212151050568,-0.63664829730987549,0.013421916402876377,0.36837074160575867,0.26207774877548218,0.070167645812034607,0.084591083228588104,0.02630607970058918,0.25252914428710938,-0.54544109106063843,1.3347775936126709,0.14399433135986328,0.60378915071487427,-0.25417184829711914,-0.092248283326625824,0.7117544412612915,-0.39301604032516479,11.127902984619141,0.2814943790435791, -0.084143169224262238,-0.15753722190856934,-0.31922417879104614,0.051044303923845291,0.098377332091331482,0.46117144823074341,-0.61726373434066772,0.044235609471797943,0.01780223473906517,-0.11638200283050537,0.0010392940603196621,0.23817764222621918,0.075317017734050751,-0.89874225854873657,-0.090079627931118011,-0.060821868479251862,-0.18162088096141815,-0.073091581463813782,0.047525525093078613,0.38181647658348083,-0.045095447450876236,0.043861221522092819,-0.12654188275337219,0.047460302710533142,-0.030832912772893906,0.22628411650657654,-0.01310332678258419,0.37292757630348206,-0.010112863965332508,-0.028413904830813408,0.1743389219045639,0.23702350258827209,0.093126349151134491,0.34086602926254272,0.1383548378944397,-0.18519222736358643,-0.1025792583823204,-0.14366292953491211,-0.056125152856111526,0.060958649963140488,0.12584696710109711,-0.15619964897632599,0.34641486406326294,0.059503037482500076,-0.67371666431427002,-0.062178753316402435,-0.1116168200969696,0.044866584241390228,-0.0061295069754123688,-0.14370472729206085,-0.0096865799278020859,-0.028318276628851891,-0.086704164743423462,0.11544752866029739,-0.2419106513261795,-0.10171874612569809,-0.01419054064899683,-0.53983181715011597,0.070348411798477173,-0.11471497267484665,-0.34031474590301514,0.33260631561279297,0.13022325932979584,-0.15923629701137543,-0.078426584601402283,-0.015680095180869102,0.10762633383274078,-0.26897019147872925,0.66499406099319458,0.063977830111980438,0.49155107140541077,-0.085195325314998627,0.10958921909332275,-0.28458553552627563,-0.13737168908119202,0.237322136759758,0.21201100945472717,0.024119647219777107,-0.054559718817472458,0.21582889556884766,-0.22301119565963745,0.23823767900466919,0.35075667500495911,-0.11871679872274399,-0.10183875262737274,0.21798574924468994,0.23016035556793213,-0.097212515771389008,1.0344703197479248,0.05604805052280426,0.019779950380325317,-0.099692568182945251,0.063437618315219879,-0.40387678146362305,-1.5203158855438232,-0.17174890637397766, 
};
const TfArray<4, int> tensor_dimension23 = { 4, { 1,3,3,96 } };
const MODEL_SECTION(EI_MODEL_SECTION) ALIGN(16) float tensor_data24[16] = { -0.74571818113327026, -1.5203901529312134, -3.1464617252349854, 7.6558041572570801, 10.478240966796875, 1.5791285037994385, -1.5812678337097168, -1.934708833694458, 4.9993190765380859, 0.23356287181377411, 8.9486827850341797, 14.53486156463623, -4.5231027603149414, 5.488492488861084, 15.57255744934082, -9.588780403137207, };
const MODEL_SECTION(EI_MODEL_SECTION) ALIGN(16) float tensor_data25[1*3*3*96] = { 
  /* [0][0][][] */ -0.28577017784118652,-0.31455916166305542,-0.046179935336112976,1.240020751953125,0.24202194809913635,0.63996613025665283,0.16066572070121765,-0.24695511162281036,-0.16075333952903748,-0.19111022353172302,-0.15710160136222839,-0.024233175441622734,-0.31942373514175415,0.011361048556864262,0.55272912979125977,0.0051203267648816109,-0.092637687921524048,-0.43634900450706482,0.22543087601661682,0.06963801383972168,0.051124017685651779,-0.21260754764080048,0.74785894155502319,0.018108565360307693,-0.31554287672042847,0.02871294878423214,0.41623124480247498,-0.2185729444026947,-0.38398915529251099,-2.6469759941101074,0.57342815399169922,0.25230678915977478,0.065591201186180115,0.19294790923595428,0.57923668622970581,-0.33709067106246948,-0.54886710643768311,-0.10503094643354416,0.29547104239463806,-0.029996445402503014,-0.12217065691947937,0.29902821779251099,-1.500784158706665,0.22532740235328674,0.3755699098110199,-0.27061763405799866,0.17152202129364014,0.5432237982749939,-0.53431969881057739,0.25911411643028259,-0.56353616714477539,0.15129765868186951,0.025488875806331635,-0.039548337459564209,0.14560471475124359,0.26469454169273376,-0.69370609521865845,-0.83383065462112427,-0.1270643025636673,-0.13421234488487244,-0.1564057320356369,0.0083110975101590157,0.042917314916849136,0.23283323645591736,0.42029157280921936,-0.12624520063400269,1.1204593181610107,0.13147895038127899,-0.076062783598899841,0.074452988803386688,0.19099840521812439,0.56753140687942505,0.29362857341766357,0.14059442281723022,0.53426611423492432,-0.038625948131084442,-0.062364578247070312,0.056701179593801498,0.3513278067111969,-0.056452978402376175,-0.13396283984184265,0.14777103066444397,-0.19231100380420685,0.20183259248733521,0.38211718201637268,0.10399015247821808,-0.23820696771144867,-0.34067714214324951,0.0044624824076890945,-0.16792036592960358,-0.23473556339740753,-0.048368442803621292,0.021020093932747841,-0.11708151549100876,-0.28437575697898865,0.28430411219596863, 0.79536902904510498,-0.55715179443359375,0.35688570141792297,1.0346673727035522,-0.48188444972038269,1.1234321594238281,0.086176075041294098,-0.49068790674209595,0.73741674423217773,0.049830485135316849,-0.18054819107055664,0.58574050664901733,1.3981362581253052,-0.82184946537017822,-0.19166629016399384,0.10481152683496475,0.093227118253707886,1.2925484180450439,1.0899562835693359,-0.33707019686698914,0.34913539886474609,-0.12959478795528412,0.47745966911315918,0.25186526775360107,-0.46744740009307861,-0.44369298219680786,-0.57005393505096436,-0.26667344570159912,-0.17414417862892151,0.96641981601715088,-0.88747626543045044,-0.20233108103275299,-0.45314508676528931,0.3666941225528717,-1.2055069208145142,-1.5116395950317383,-0.79316043853759766,-0.14227256178855896,-0.5011061429977417,0.26359769701957703,-0.00969648826867342,1.3460335731506348,1.776738166809082,0.261431485414505,-0.74772083759307861,-0.45510619878768921,-0.52549034357070923,-0.60544127225875854,-0.45501047372817993,-0.64027529954910278,0.94426333904266357,0.67540222406387329,0.57372492551803589,-0.19438140094280243,0.39179673790931702,0.46497514843940735,-0.35495167970657349,0.72029441595077515,-0.16522467136383057,-0.82826846837997437,-0.62120682001113892,-0.58774793148040771,-0.27086448669433594,0.41654852032661438,0.45209339261054993,-0.31050992012023926,0.39868614077568054,0.28366506099700928,-0.74635827541351318,0.14609803259372711,-0.17826145887374878,0.40717208385467529,1.4602094888687134,0.79300868511199951,0.28021141886711121,0.37217244505882263,0.0078364750370383263,0.19537478685379028,-0.089878782629966736,0.4355786144733429,0.63074982166290283,1.3280467987060547,0.87214195728302002,-0.24146579205989838,-0.029294595122337341,0.37147212028503418,-0.35241508483886719,2.72450852394104,-1.3414314985275269,-0.53140354156494141,0.082431785762310028,-0.1582379937171936,-0.72632867097854614,-0.59917151927947998,-0.71832412481307983,1.1951776742935181, -0.46166107058525085,-0.053687945008277893,0.14278669655323029,-0.7916075587272644,0.15966308116912842,-0.21867240965366364,0.13347069919109344,-0.032793868333101273,0.85037380456924438,-0.36055102944374084,-0.28781849145889282,0.079215675592422485,-0.20763306319713593,-0.034418035298585892,-0.12431518733501434,-0.10402214527130127,-0.087857313454151154,-0.15433250367641449,0.057619370520114899,-0.008526308462023735,-0.060223031789064407,-0.17245995998382568,0.17047333717346191,-0.0077673429623246193,-0.45199453830718994,0.37699669599533081,0.062388099730014801,-0.42203649878501892,0.35632613301277161,1.0397779941558838,-0.2273852676153183,0.094928570091724396,0.0053894286975264549,0.090955197811126709,0.13955742120742798,-0.53337830305099487,-0.1519557386636734,0.34602585434913635,0.18610717356204987,0.050076611340045929,0.21921420097351074,0.1276075541973114,-1.646639347076416,0.20947811007499695,0.26674869656562805,-0.068388774991035461,0.16951553523540497,0.15831400454044342,-0.44056889414787292,0.05629982054233551,-0.37801149487495422,0.03565506637096405,-0.087337367236614227,0.0066841705702245235,-0.015340523794293404,0.11788637936115265,-0.50128400325775146,0.1146104633808136,-0.066394433379173279,0.38725858926773071,0.029869357123970985,0.56680810451507568,0.14764410257339478,-0.0033975346013903618,-0.044782869517803192,-0.19828549027442932,-0.45747256278991699,0.22727175056934357,0.092055067420005798,0.013414338231086731,-0.035259891301393509,0.16274954378604889,0.11953239142894745,-0.15900284051895142,-0.12527111172676086,0.069291435182094574,-0.073043175041675568,-0.021761737763881683,-0.23181787133216858,0.009895949624478817,-0.20228423178195953,-0.25087973475456238,-0.12703117728233337,0.021627219393849373,-0.33772671222686768,0.050130940973758698,-0.10217790305614471,-0.48369243741035461,-0.56353884935379028,0.12445157766342163,-0.38992646336555481,-0.039495684206485748,0.24437560141086578,-0.12521487474441528,-0.27306956052780151,0.0038117615040391684, 
  /* [0][1][][] */ -0.3994278609752655,-0.32687583565711975,0.34688931703567505,-0.33995962142944336,-0.53185504674911499,0.84079629182815552,0.037237953394651413,0.52542531490325928,-0.55056536197662354,-0.22294411063194275,-0.0043298117816448212,-0.55298250913619995,0.28548720479011536,-0.95933902263641357,1.1770693063735962,0.23385028541088104,-0.031273834407329559,-0.60890001058578491,-0.15084874629974365,0.27310749888420105,0.14431242644786835,-0.11913760751485825,0.28095328807830811,0.18214525282382965,-0.35560256242752075,-0.045138366520404816,1.0787926912307739,-0.17531728744506836,-0.076449483633041382,1.3255165815353394,1.8233492374420166,-1.0395402908325195,-0.64581108093261719,0.63563299179077148,-0.82457149028778076,-1.0106601715087891,-0.66718602180480957,0.33119389414787292,-0.270750492811203,0.41547709703445435,-0.44659444689750671,-0.26662936806678772,-0.076023563742637634,0.149592325091362,-0.69589370489120483,0.52370238304138184,-0.10980282723903656,0.7753676176071167,0.45444515347480774,0.48066374659538269,0.4118511974811554,-0.018388265743851662,0.12560513615608215,-0.33322778344154358,0.23876829445362091,0.1744978129863739,0.978240966796875,2.0611145496368408,-0.14926669001579285,-0.62300670146942139,1.7708258628845215,-0.45047590136528015,-0.16107760369777679,0.80468428134918213,0.44421672821044922,-0.18989506363868713,-0.21298977732658386,-0.0067426711320877075,1.1662499904632568,0.17647136747837067,1.2729133367538452,0.43294200301170349,-0.50434339046478271,0.63709366321563721,-0.11947827786207199,0.22618673741817474,0.087806396186351776,0.039612594991922379,-0.084560185670852661,0.074813403189182281,-0.41003632545471191,1.280474066734314,-0.54879480600357056,1.1217221021652222,0.0014421131927520037,0.16530071198940277,-0.17143002152442932,0.65826511383056641,0.88615161180496216,-0.67309510707855225,-0.49414876103401184,-0.0091940648853778839,1.0460764169692993,-0.32441264390945435,-0.42840677499771118,-0.0058450205251574516, 0.41406160593032837,0.55325412750244141,0.26945942640304565,-1.0981433391571045,1.4141247272491455,0.74769824743270874,0.19026987254619598,0.15587995946407318,-1.3188557624816895,1.3319245576858521,1.3205158710479736,-0.1819130927324295,-0.70487576723098755,-1.0680152177810669,-1.9035930633544922,0.96499359607696533,1.1834882497787476,-0.64154404401779175,-1.0697082281112671,-0.15056376159191132,0.2853069007396698,0.15497545897960663,-0.71698427200317383,0.4812144935131073,-0.39448204636573792,-0.34731677174568176,-0.37546241283416748,0.96708536148071289,-0.39489948749542236,2.2797567844390869,-1.8827286958694458,-1.2909460067749023,-0.44629648327827454,0.89854472875595093,1.0142744779586792,2.253892183303833,2.3760461807250977,-1.2937370538711548,-1.0075492858886719,0.55144286155700684,-0.59712642431259155,-1.0177589654922485,1.5252237319946289,-0.40807020664215088,-1.8643393516540527,-0.14043724536895752,-0.59031373262405396,-1.5240306854248047,3.7411127090454102,-0.56099778413772583,1.8982394933700562,0.3417227566242218,1.0852028131484985,0.76531380414962769,1.1008822917938232,-0.70870018005371094,0.77234387397766113,-2.1558074951171875,-0.26550400257110596,0.94183146953582764,0.27409654855728149,-1.1133249998092651,-0.56224364042282104,-0.62721318006515503,-0.7952505350112915,0.64289712905883789,-1.8918865919113159,1.1867583990097046,-1.1532832384109497,-0.57641357183456421,-1.0745391845703125,-0.36211737990379333,-1.599557638168335,-0.49021759629249573,2.7355110645294189,2.6465513706207275,-0.7377699613571167,0.42969653010368347,-0.21336729824542999,1.0610480308532715,1.2398823499679565,0.31448635458946228,-0.28361251950263977,-1.3097753524780273,0.17922946810722351,0.61399167776107788,0.29800081253051758,0.9831663966178894,1.4470893144607544,0.060107376426458359,1.9712777137756348,0.00082555471453815699,-0.54882264137268066,0.1617615818977356,2.3980712890625,-1.4589676856994629, -0.33278506994247437,-0.056067448109388351,-0.23125141859054565,0.37537923455238342,-0.6280859112739563,-0.85769009590148926,0.072466254234313965,-0.11146838217973709,0.20468117296695709,-0.35080251097679138,-0.29547646641731262,0.42759397625923157,0.015335801057517529,0.78016197681427002,0.21065452694892883,0.06380782276391983,-0.046194292604923248,0.64995872974395752,-0.062369484454393387,0.389415442943573,0.008751939982175827,-0.14594739675521851,-0.24275295436382294,0.027935193851590157,-0.27356415987014771,0.40649798512458801,-0.61154627799987793,-0.15666620433330536,-0.21807464957237244,-0.33187597990036011,0.23822858929634094,-0.6362873911857605,-0.35747572779655457,0.25977557897567749,0.058258600533008575,-0.32034796476364136,-0.5291825532913208,0.46812775731086731,-0.64868283271789551,0.18216052651405334,1.1365505456924438,-0.052222870290279388,-0.54227596521377563,0.095914378762245178,-0.59881573915481567,-0.2343849241733551,0.071769744157791138,0.53607451915740967,0.24236831068992615,0.59686845541000366,-0.27063316106796265,0.047125589102506638,-0.32093530893325806,-0.4403197169303894,0.027767764404416084,0.10686235129833221,0.73182100057601929,0.048463370651006699,0.0021781413815915585,0.16325613856315613,-0.49135985970497131,1.7713645696640015,0.40749204158782959,-0.32604122161865234,-0.2706255316734314,0.060683585703372955,0.57064908742904663,-0.091072335839271545,-0.71062183380126953,0.55498659610748291,-0.18712860345840454,-0.37895557284355164,-0.014727224595844746,-0.33439695835113525,-0.364399254322052,-0.42419663071632385,0.15210190415382385,0.050233691930770874,0.21231821179389954,-0.30425137281417847,-0.67501062154769897,-0.44103026390075684,0.38647916913032532,0.14390107989311218,-0.14830181002616882,-0.082986257970333099,0.23331156373023987,0.48249772191047668,0.17100383341312408,0.32326593995094299,-0.66871750354766846,0.025734048336744308,-0.34705382585525513,0.45105081796646118,-0.5039944052696228,-0.062117092311382294, 
  /* [0][2][][] */ -0.41905122995376587,0.0077586420811712742,-0.014887371100485325,-0.19355314970016479,0.14473553001880646,-0.38110631704330444,0.13743050396442413,0.099448859691619873,0.57222270965576172,-0.30232653021812439,-0.37592527270317078,-0.012109332717955112,0.20433895289897919,0.16061250865459442,-0.39240199327468872,0.0052270577289164066,-0.071689367294311523,0.65751779079437256,0.055283568799495697,0.0050139483064413071,-0.14938463270664215,-0.13774655759334564,0.015942825004458427,-0.03507348895072937,-0.10304363816976547,-0.20156008005142212,0.29053294658660889,-0.52812069654464722,0.27058091759681702,0.78986257314682007,0.37953057885169983,0.27045765519142151,0.079615227878093719,-0.051634166389703751,-0.10471552610397339,-0.82527858018875122,-0.12632942199707031,0.36860105395317078,-0.026892071589827538,-0.00077226490247994661,-0.14516623318195343,-0.057619050145149231,-0.94563412666320801,0.3416668176651001,0.0611129030585289,0.13200673460960388,0.049059562385082245,0.43124336004257202,-0.43968221545219421,-0.15265050530433655,0.25523847341537476,-0.16274689137935638,0.18255914747714996,-0.0057555059902369976,0.076477237045764923,0.083585783839225769,-0.53646373748779297,0.40707916021347046,-0.030813537538051605,0.10586500912904739,0.20009884238243103,0.014154166914522648,-0.093845754861831665,-0.025721261277794838,-0.0068247178569436073,-0.23754942417144775,-0.6850399374961853,0.14642231166362762,-0.30123609304428101,0.058676227927207947,0.25668606162071228,0.12978658080101013,0.17112061381340027,-0.12183313071727753,0.570870041847229,0.088714085519313812,0.10227698087692261,0.013525070622563362,-0.21371999382972717,-0.10631570219993591,-0.07339700311422348,-0.088137499988079071,0.11630702763795853,0.14359885454177856,-0.38848689198493958,0.026954848319292068,0.043559137731790543,-0.92575478553771973,-0.65465021133422852,-0.26812231540679932,-0.42982155084609985,-0.061429683119058609,0.080430306494235992,0.26503998041152954,-0.34530594944953918,-0.099240876734256744, 0.75370252132415771,0.14996306598186493,-0.59397292137145996,-0.33343034982681274,-0.79654395580291748,-0.21112342178821564,0.077910318970680237,0.12562021613121033,-0.66711550951004028,-0.30324047803878784,-0.19571609795093536,-0.50617372989654541,-0.83450359106063843,0.94964224100112915,-0.19071203470230103,0.26403346657752991,0.016241837292909622,-0.51558142900466919,-0.082165800034999847,-0.38099247217178345,0.25392085313796997,-0.088576622307300568,-0.22206765413284302,0.0015902218874543905,-0.40100270509719849,0.49620833992958069,-0.44040495157241821,0.15255016088485718,-0.11395779252052307,-0.45687159895896912,-0.12756456434726715,-0.044493187218904495,-0.31820228695869446,0.11744920909404755,0.26844790577888489,0.08693203330039978,-0.43077260255813599,-0.28271377086639404,1.2213288545608521,0.22589683532714844,0.088364183902740479,-0.15404164791107178,0.95137226581573486,-0.1030084490776062,-0.56403380632400513,0.31545862555503845,-0.31789201498031616,-0.52361845970153809,-0.95484745502471924,-0.024733131751418114,-2.8212723731994629,-1.0248508453369141,-0.43347853422164917,-0.15420648455619812,0.018787043169140816,0.22213830053806305,-0.50099140405654907,-0.1104421392083168,0.023376384750008583,0.28846955299377441,-0.10816631466150284,-0.25808840990066528,0.037713661789894104,-0.29914778470993042,-0.34009748697280884,0.16383388638496399,0.94756019115447998,-0.20019042491912842,1.0580623149871826,0.49626508355140686,-0.24063283205032349,-0.31039154529571533,0.13944715261459351,-0.35480678081512451,0.060428980737924576,0.089043736457824707,0.58205962181091309,0.0091317417100071907,0.14158286154270172,0.17319789528846741,0.12509861588478088,-1.0121365785598755,-0.34464403986930847,0.019756350666284561,0.0061809052713215351,0.035644575953483582,0.40633675456047058,0.85772573947906494,-0.68157130479812622,0.20271117985248566,-0.29842406511306763,-0.1382678747177124,0.34015384316444397,0.36767223477363586,-0.18085406720638275,0.28732767701148987, -0.33919328451156616,0.058161135762929916,-0.080890394747257233,0.26181590557098389,0.17182359099388123,-0.59614050388336182,-0.27291896939277649,0.0088047245517373085,-0.10966125130653381,-0.080547690391540527,-0.16126614809036255,0.017183898016810417,0.16569831967353821,-0.20817965269088745,0.28335827589035034,-0.022948961704969406,-0.080367937684059143,-0.15347255766391754,0.035625707358121872,0.053838822990655899,-0.13179503381252289,-0.1201794296503067,0.084152594208717346,0.0057422518730163574,0.064656801521778107,-0.36175039410591125,0.17210088670253754,0.021906385198235512,-0.15134575963020325,-0.83459436893463135,-0.11385433375835419,0.16022787988185883,0.21429732441902161,-0.13574698567390442,-0.052221100777387619,-0.45124995708465576,-0.65340977907180786,0.036122087389230728,0.40027475357055664,-0.18071374297142029,0.19517602026462555,-0.024599254131317139,-0.67706918716430664,-0.10665383189916611,0.040563993155956268,0.27083337306976318,0.10371719300746918,0.18635652959346771,-0.25618463754653931,-0.018823180347681046,0.22380505502223969,-0.071823060512542725,0.15411002933979034,0.034224595874547958,-0.037463996559381485,-0.028967589139938354,-0.4685593843460083,-0.20480130612850189,0.0074879354797303677,-0.27660208940505981,-0.16418220102787018,0.13669992983341217,0.3700927197933197,-0.066691562533378601,0.21161223948001862,-0.011354665271937847,-0.019613305106759071,0.26989918947219849,0.012789828702807426,0.022053001448512077,-0.039332393556833267,0.087511301040649414,-0.22392246127128601,0.10134951025247574,-0.026381503790616989,0.30837687849998474,0.20535659790039062,0.0016421874752268195,0.20576013624668121,-0.10177256166934967,0.038977809250354767,-0.095865137875080109,-0.057365685701370239,-0.18249456584453583,0.22256329655647278,-0.00059919321211054921,0.13850158452987671,-0.83191031217575073,0.66528540849685669,0.20135112106800079,-0.26344424486160278,-0.066745758056640625,-0.056750919669866562,0.0049895583651959896,-0.26839974522590637,-0.18210352957248688, 
};
const MODEL_SECTION(EI_MODEL_SECTION) ALIGN(16) float tensor_data26[16] = { -7.6913409233093262, 7.6261482238769531, -4.2197747230529785, -0.53032994270324707, -5.4144740104675293, 3.6091701984405518, 9.6120939254760742, -16.519742965698242, -0.038983087986707687, 4.1838088035583496, 20.177764892578125, 9.2396364212036133, -5.7088265419006348, 3.1637728214263916, -2.789820671081543, 5.7060227394104004, };
const MODEL_SECTION(EI_MODEL_SECTION) ALIGN(8) float tensor_data27[3] = { 3.3149423599243164, -4.8812437057495117, -3.5296487808227539, };
const TfArray<1, int> tensor_dimension27 = { 1, { 3 } };
const MODEL_SECTION(EI_MODEL_SECTION) ALIGN(16) float tensor_data28[16*3*3*3] = { 
  /* [0][0][][] */ 4.8747259224958709e-20,3.7147711957476137e-20,2.2560115283226402e-20, 1.8998144703015219e-20,9.99850122558854e-21,2.4239875557561167e-21, 1.4501873620925392e-20,1.3855346346097105e-20,8.9639567732261252e-21, 
  /* [0][1][][] */ 3.8636523968972215e-20,2.4191955223685994e-20,1.3960823183307553e-20, 2.0533141503907886e-20,1.3445754617976975e-20,2.9473941662847144e-21, 2.0706167654773519e-20,1.8024154072018234e-20,1.7330613211593671e-20, 
  /* [0][2][][] */ 3.1181633015346212e-20,1.1348582769897257e-21,-8.6793048605184484e-21, 1.1872147707964976e-20,-1.0257333632515912e-20,-2.2796315737788639e-20, 1.7555312301349726e-20,6.2228341078998947e-21,2.910896437342946e-21, 
  /* [1][0][][] */ 2.4600222110748291,-0.46985849738121033,1.7017378807067871, -0.49572250247001648,-1.4351495504379272,0.95363771915435791, -7.5938014984130859,-6.9473309516906738,-3.736821174621582, 
  /* [1][1][][] */ -0.041376382112503052,-0.48731303215026855,-0.03409765288233757, -1.3521151542663574,0.064301639795303345,-0.19203147292137146, -0.0047477548941969872,-2.0263118743896484,0.43769699335098267, 
  /* [1][2][][] */ -0.33555367588996887,0.68386179208755493,-0.16879516839981079, -0.30752149224281311,0.17120054364204407,-0.18908867239952087, 2.3018076419830322,-1.3683242797851562,0.68339866399765015, 
  /* [2][0][][] */ 1.3529826402664185,-0.369659423828125,-0.41458085179328918, 3.8878483772277832,5.6982336044311523,-0.021341122686862946, 2.1195747852325439,-1.9231218099594116,0.25857430696487427, 
  /* [2][1][][] */ 0.49992531538009644,0.58156991004943848,-0.15452402830123901, 3.4454231262207031,6.3290462493896484,-1.4483765363693237, 1.1120061874389648,-0.21913133561611176,-0.43710359930992126, 
  /* [2][2][][] */ 2.5054008960723877,-3.274937629699707,0.87831908464431763, 3.8558957576751709,-2.0729091167449951,-1.1350315809249878, 1.8210712671279907,-2.6271836757659912,0.56907737255096436, 
  /* [3][0][][] */ 0.0688580721616745,0.5383039116859436,0.11020594835281372, 0.52191841602325439,1.4988718032836914,0.37723085284233093, -0.0058763441629707813,0.080530375242233276,-0.07638636976480484, 
  /* [3][1][][] */ 0.27097728848457336,0.6126057505607605,0.17169281840324402, 1.064203143119812,2.0451691150665283,0.4744316041469574, -0.22140569984912872,-0.30946934223175049,0.049656514078378677, 
  /* [3][2][][] */ 0.012645004317164421,0.12164722383022308,0.16174420714378357, 0.39366066455841064,0.48436328768730164,0.2360210120677948, -0.030257821083068848,-0.077356003224849701,0.037282738834619522, 
  /* [4][0][][] */ 0.15500655770301819,0.33386150002479553,-0.029266580939292908, 0.053812593221664429,0.37633642554283142,-0.046525564044713974, -0.056662086397409439,0.055837094783782959,0.00030743077513761818, 
  /* [4][1][][] */ 0.18056474626064301,0.44951415061950684,0.25062832236289978, 0.12559738755226135,0.58244895935058594,0.15965616703033447, 0.11232434958219528,0.24915941059589386,-0.052557170391082764, 
  /* [4][2][][] */ 0.20709358155727386,0.37365403771400452,0.17150749266147614, 0.16666777431964874,0.55390530824661255,0.071673378348350525, -0.13225498795509338,0.11196750402450562,0.092660561203956604, 
  /* [5][0][][] */ 0.56068128347396851,0.20143832266330719,-10.00614070892334, -0.48051485419273376,-0.15370170772075653,-8.9608888626098633, -0.68761348724365234,2.0455410480499268,-2.6073362827301025, 
  /* [5][1][][] */ 0.42742788791656494,-3.4074220657348633,-10.454587936401367, -0.095133267343044281,-3.8991668224334717,-9.8273553848266602, -0.16797527670860291,0.77189040184020996,-2.2907805442810059, 
  /* [5][2][][] */ -0.063963264226913452,0.93706870079040527,-1.2952589988708496, 0.32018500566482544,0.063427776098251343,-0.81304574012756348, 0.21506655216217041,0.90727436542510986,-1.1916031837463379, 
  /* [6][0][][] */ 0.18974024057388306,-0.45996913313865662,0.25214755535125732, 0.36369359493255615,-0.63909977674484253,0.29059982299804688, 0.085157476365566254,-0.16173316538333893,0.05380697175860405, 
  /* [6][1][][] */ 0.27522838115692139,-0.70913350582122803,0.44217461347579956, 0.48634099960327148,-0.93446230888366699,0.52110129594802856, 0.070430345833301544,-0.21869179606437683,0.11259659379720688, 
  /* [6][2][][] */ 0.15735083818435669,-0.27186974883079529,0.079130165278911591, 0.11853278428316116,-0.3444274365901947,0.17098717391490936, -0.088414721190929413,0.043147500604391098,-0.021538503468036652, 
  /* [7][0][][] */ -2.469897985458374,1.4175419807434082,0.45776951313018799, -8.1346912384033203,-2.7689940929412842,0.24194873869419098, -1.7750831842422485,1.740562915802002,0.08387342095375061, 
  /* [7][1][][] */ -1.1833243370056152,-0.4256933331489563,0.2182624489068985, -9.509063720703125,-6.817014217376709,-0.34839761257171631, -0.49787342548370361,-0.45950004458427429,0.30641692876815796, 
  /* [7][2][][] */ -1.7206778526306152,2.4277737140655518,-0.51647478342056274, -0.94395184516906738,0.74016720056533813,0.18212917447090149, -1.8264666795730591,1.7938138246536255,-0.29922294616699219, 
  /* [8][0][][] */ 0.037583310157060623,0.22933207452297211,-0.18322132527828217, 0.03232540562748909,0.22949685156345367,-0.169032022356987, 0.017323024570941925,0.20771618187427521,-0.19554662704467773, 
  /* [8][1][][] */ 0.038349971175193787,0.22696991264820099,-0.17988350987434387, 0.032936941832304001,0.22851447761058807,-0.15669943392276764, 0.022521538659930229,0.21212127804756165,-0.18211722373962402, 
  /* [8][2][][] */ 0.038540143519639969,0.21798567473888397,-0.18492148816585541, 0.037050414830446243,0.22651250660419464,-0.1568896472454071, 0.026645313948392868,0.20770992338657379,-0.18547244369983673, 
  /* [9][0][][] */ -0.45105224847793579,-0.10022777318954468,0.14102905988693237, -0.2870633602142334,-0.081194140017032623,0.075326748192310333, 0.028149362653493881,0.092401355504989624,-0.174901083111763, 
  /* [9][1][][] */ 1.7770543098449707,2.1349716186523438,-0.12105348706245422, 1.3213052749633789,2.4426991939544678,0.38946929574012756, -0.18592284619808197,0.38733679056167603,0.52399110794067383, 
  /* [9][2][][] */ -0.42616695165634155,-0.3985869288444519,0.37186408042907715, 0.068749286234378815,-0.5439760684967041,0.057531703263521194, 0.15108297765254974,0.07919580489397049,-0.34218564629554749, 
  /* [10][0][][] */ -1.2067972421646118,-4.0928311347961426,-0.88884049654006958, 1.6701276302337646,4.647796630859375,0.99397778511047363, -0.42032721638679504,-0.6314653754234314,-0.10834620147943497, 
  /* [10][1][][] */ -2.892413854598999,-5.0691947937011719,-0.66886311769485474, 3.8748109340667725,6.2476286888122559,0.72458285093307495, -0.82603085041046143,-1.2978942394256592,-0.013992358930408955, 
  /* [10][2][][] */ -1.5375233888626099,-0.95854818820953369,0.10568125545978546, 1.7889029979705811,1.1213657855987549,-0.53438210487365723, -0.40953794121742249,-0.043657541275024414,0.35726171731948853, 
  /* [11][0][][] */ -0.0225836131721735,-0.096078254282474518,0.0090412590652704239, 0.065978065133094788,-0.1664290726184845,0.033642001450061798, 0.057583797723054886,-0.38741803169250488,-0.18827039003372192, 
